tree
version=v4
num_class=1
num_tree_per_iteration=1
label_index=0
max_feature_idx=11
objective=binary sigmoid:1
feature_names=Column_0 Column_1 Column_2 Column_3 Column_4 Column_5 Column_6 Column_7 Column_8 Column_9 Column_10 Column_11
feature_infos=[-0.83746494804616645:429.44521164925874] [-8.1955017513182593:4.6602406792997471] [-0.40837252538349983:297.18618124749236] [-0.90313717052822562:467.96132987844987] [-1.324623491874007:41.957707918572346] [-0.081655248324779703:12.246610236522086] [-0.018544615848085692:53.924007280163082] [-0.16497665382874258:6.0614637089079961] [-0.63136668799452456:27.152450000312864] [-0.030668137811592892:48.882887863115627] [-0.030372091694076508:47.565057318510242] [-0.035187586252714356:28.419113286659741]
tree_sizes=6888 6951 6955 6960 6928 6966 6999 6993 6978 6975 6982 6976 7018 6966 6982 6975 6989 7004 6976 6975 6995 6985 6996 7010

Tree=0
num_leaves=63
num_cat=0
split_feature=2 4 8 4 4 2 2 0 0 5 0 4 4 2 4 8 2 3 0 0 4 3 2 3 4 2 4 3 4 2 8 8 4 2 4 2 2 3 8 0 2 4 3 2 4 8 4 2 4 2 4 0 2 4 3 2 3 4 8 4 0 2
split_gain=21968.1 20535.5 12226.2 15447.6 4619.29 8697.39 4542.29 4332.75 2407.62 1841.77 1033.88 2400.38 948.843 938.353 2009.05 894.935 695.805 578.183 558.642 545.047 542.099 579.315 464.964 451.073 1797.15 461.443 417.111 406.382 436.017 396.547 355.124 320.552 312.189 305.292 260.061 239.518 228.838 206.688 205.073 197.986 188.45 187.786 187.49 164.674 156.403 205.562 152.836 149.949 365.114 356.307 361.113 319.272 221.754 148.197 140.664 132.601 131.493 134.589 128.986 127.131 125.695 125.67
threshold=1.0303353964601722 -0.88654321444033923 1.0000000180025095e-35 -0.71131110346687232 -0.36084688151993827 -0.36477531563066123 -0.10319205711363004 1.1612217822576489 -0.67723267852813895 1.0000000180025095e-35 1.7009515322131097 0.51531367334739697 -0.53607899249340518 -0.36477531563066123 -0.53607899249340518 3.4544887073447978 -0.36477531563066123 -0.33880468305046207 -0.1881025926310029 0.97568968071045914 -0.71131110346687232 -0.33880468305046207 0.3327800404147554 0.36394898060109249 0.16484945140046278 -0.1903864766193071 1.566706339188199 0.68338246407907188 0.69054578432086389 -0.27758089612498416 1.8201465492090692 1.8201465492090692 0.51531367334739697 -0.36477531563066123 2.7933311160024688 0.76875213794314079 0.24558562090907829 0.70467802964427062 1.0000000180025095e-35 -0.69409923321424716 1.6406963329999118 0.16484945140046278 -0.53046477313724971 0.3327800404147554 -0.53607899249340518 1.8201465492090692 0.86577789529433102 0.071196781897724118 1.0000000180025095e-35 -0.36477531563066123 -0.18561477054647127 0.06489572766061924 -0.27758089612498416 0.69054578432086389 -0.21103128965927034 0.68155771843746371 -0.44528251087645515 -1.0617753254138063 1.0000000180025095e-35 -0.36084688151993827 0.43595993075499845 0.50716887942610955
decision_type=2 2 2 2 2 2 2 2 2 2 2 2 2 2 2 2 2 2 2 2 2 2 2 2 2 2 2 2 2 2 2 2 2 2 2 2 2 2 2 2 2 2 2 2 2 2 2 2 2 2 2 2 2 2 2 2 2 2 2 2 2 2
left_child=1 16 6 -4 5 44 8 9 33 15 11 38 18 20 -15 17 56 42 36 31 -10 -22 -9 47 25 -25 -21 61 -29 53 -7 40 43 39 37 -30 -8 -34 41 -3 -13 54 -6 -26 45 -5 -31 49 51 -19 -51 -49 -52 -16 59 -50 57 -1 -42 -2 -43 -14
right_child=10 2 3 4 7 30 12 22 13 -11 -12 19 27 14 29 -17 -18 23 -20 26 21 -23 -24 24 32 -27 -28 28 35 46 -32 -33 34 -35 -36 -37 -38 -39 -40 -41 58 60 -44 -45 -46 -47 -48 48 55 50 52 -53 -54 -55 -56 -57 -58 -59 -60 -61 -62 -63
leaf_value=-0.57746546273407673 -0.61775571411127217 -0.74305759569074736 -0.58415242320017735 -0.74886226387050625 -0.6030412384799344 -0.62495960614855928 -0.72837719376971199 -0.69131934917968707 -0.76903191978852004 -0.57746546273407673 -0.5902521480220202 -0.75277678204006793 -0.79162010767143631 -0.67232914228502383 -0.73327727533884401 -0.64451193367909998 -0.58087041382672755 -0.76488153358418642 -0.61508414766332864 -0.61297850208755034 -0.72926251016632038 -0.75474168182417078 -0.60215173581230474 -0.72663911225311717 -0.7251335689886429 -0.58473105639823864 -0.7051052584727816 -0.65820058816370897 -0.77604203818291273 -0.76141762635283594 -0.58192021451350784 -0.60962551269774767 -0.7755987493452241 -0.58385979656894571 -0.60146104180913773 -0.71096572863786889 -0.78347719674962335 -0.73873028545618813 -0.58759567182472749 -0.64958308493603267 -0.72159763810425104 -0.7076487068003412 -0.71022348235543187 -0.63071794662401737 -0.72608223755091528 -0.60068340730207548 -0.72323452473427696 -0.74798264290714311 -0.78458190545138018 -0.69449051494166114 -0.71308604573426304 -0.62924141253641652 -0.75713482657928621 -0.69026500049332373 -0.59739672351521211 -0.74834877754477802 -0.59288922657762222 -0.64272043153358616 -0.616919732174802 -0.71461861699090856 -0.62802066461600958 -0.777566335451088
leaf_weight=85.542075634002686 94.315621852874756 69.749692440032959 2078.6724379062653 1955.4041135311127 44.96442437171936 1440.1776118278503 565.89373111724854 199.8175151348114 5260.8376514911652 152.65970420837402 1521.1135756969452 469.16538405418396 9993.9464979171753 1122.1365613937378 1419.3404395580292 190.16661429405212 1439.0809185504913 4841.9008195400238 89.051494121551514 252.02011513710022 2667.3773891925812 13634.090824127197 544.83722019195557 77.426545381546021 336.9041748046875 220.21601009368896 239.73715043067932 94.754299163818359 1289.9306328296661 2705.3229765892029 718.33409667015076 52.860615968704224 1193.6409630775452 156.38846135139465 25.0046067237854 158.80118656158447 282.50818824768066 557.77820086479187 883.49610424041748 301.59065127372742 82.910011768341064 91.025542020797729 440.65135884284973 53.518631935119629 1604.4622647762299 23.68857479095459 290.18504118919373 304.66139245033264 1808.8858916759491 352.91589665412903 346.55507564544678 69.530353784561157 1627.7121622562408 233.15699076652527 539.35375380516052 293.47512102127075 191.26330757141113 1035.9364697933197 45.622440338134766 52.860615968704224 108.79197311401367 1891.7959034442902
leaf_count=390 430 318 9477 8915 205 6566 2580 911 23985 696 6935 2139 45564 5116 6471 867 6561 22075 406 1149 12161 62160 2484 353 1536 1004 1093 432 5881 12334 3275 241 5442 713 114 724 1288 2543 4028 1375 378 415 2009 244 7315 108 1323 1389 8247 1609 1580 317 7421 1063 2459 1338 872 4723 208 241 496 8625
internal_value=-0.731429 -0.738615 -0.744389 -0.713701 -0.727564 -0.689925 -0.760018 -0.743358 -0.748241 -0.750108 -0.623662 -0.641112 -0.782854 -0.750284 -0.732375 -0.75217 -0.604884 -0.753795 -0.73422 -0.697616 -0.755076 -0.750573 -0.626079 -0.75594 -0.736849 -0.621646 -0.657891 -0.786249 -0.762112 -0.746871 -0.610636 -0.727644 -0.752674 -0.642461 -0.761571 -0.768909 -0.746725 -0.763857 -0.604643 -0.667141 -0.738082 -0.621635 -0.700299 -0.712191 -0.737683 -0.747089 -0.757719 -0.760818 -0.771425 -0.757154 -0.741075 -0.725919 -0.749403 -0.727209 -0.609219 -0.779524 -0.631208 -0.637743 -0.684442 -0.652546 -0.664295 -0.789383
internal_weight=70915.9 66482.6 63730.8 21504 19425.3 5742.07 42226.9 13683.2 27860.2 12938.6 4433.27 2912.16 14366.7 27332.4 5770.14 12785.9 2751.82 12595.7 937.453 1142.32 21562.3 16301.5 744.655 12110.1 2464.49 297.643 491.757 13429.2 1543.49 4648.01 2158.51 650.558 2166.85 527.729 1776.42 1448.73 848.402 1751.42 1769.84 371.34 597.698 886.348 485.616 390.423 3583.55 1979.09 2995.51 9645.64 2476.55 7169.08 2327.18 374.192 1974.27 1652.5 686.53 2102.36 1312.74 1121.48 128.532 147.176 199.818 11885.7
internal_count=323317 303105 290559 98040 88563 26179 192519 62384 127019 58989 20212 13277 65500 124613 26307 58293 12546 57426 4274 5208 98306 74321 3395 55212 11236 1357 2242 61226 7037 21191 9841 2966 9879 2406 8099 6605 3868 7985 8069 1693 2725 4041 2214 1780 16338 9023 13657 43976 11291 32685 10610 1706 9001 7534 3130 9585 5985 5113 586 671 911 54189
is_linear=0
shrinkage=1


Tree=1
num_leaves=63
num_cat=0
split_feature=2 4 8 4 1 4 2 2 3 3 1 1 8 4 2 4 3 4 2 2 1 1 4 1 1 4 2 1 3 1 4 1 2 2 3 2 7 8 4 4 2 8 1 4 4 3 4 2 2 4 2 8 4 4 8 2 2 4 3 4 8 4
split_gain=19166.7 17886.5 11117.1 13183 6430.67 5716.44 7373.76 4251.11 2116.56 1575.84 1392.02 1356.41 865.932 860.747 843.004 1785.87 795.906 1742.58 757.133 556.767 541.803 531.198 1394.82 516.623 514.959 482.068 465.271 435.978 423.148 410.955 393.986 324.624 352.502 336.927 322.179 320.98 304.726 290.61 240.006 221.688 219.318 213.097 212.1 189.823 185.58 183.749 179.867 172.381 169.067 165.896 164.704 163.149 157.549 156.836 155.67 153.866 153.499 148.022 247.109 142.059 179.512 137.936
threshold=1.0303353964601722 -0.88654321444033923 1.0000000180025095e-35 -0.71131110346687232 1.8937891725332816 -0.36084688151993827 -0.36477531563066123 -0.10319205711363004 -0.65823816652844125 -0.42398694531125658 1.8937891725332816 -1.8198349458239993 3.4544887073447978 -0.53607899249340518 -0.36477531563066123 -0.53607899249340518 1.5352050866870171 0.51531367334739697 1.7278907525055889 -0.36477531563066123 1.034542418234033 -0.47966018187479353 -0.71131110346687232 0.7368287590264907 -0.95329117573829636 1.0000000180025095e-35 0.071196781897724118 1.7258725935784165 0.57690463625307886 -1.0118783056061618 1.0000000180025095e-35 -0.74937753961990017 -0.36477531563066123 -0.10319205711363004 0.83245142303546216 -0.27758089612498416 1.0000000180025095e-35 1.8201465492090692 1.566706339188199 1.0000000180025095e-35 0.24558562090907829 1.8201465492090692 0.34170962159551826 -0.71131110346687232 1.0000000180025095e-35 0.83245142303546216 -1.0617753254138063 0.50716887942610955 0.41997445992043247 -0.71131110346687232 1.0000000180025095e-35 1.0000000180025095e-35 -0.18561477054647127 1.0000000180025095e-35 1.8201465492090692 1.2047242354715264 0.50716887942610955 0.51531367334739697 0.2148800216447021 -0.53607899249340518 1.8201465492090692 -0.18561477054647127
decision_type=2 2 2 2 2 2 2 2 2 2 2 2 2 2 2 2 2 2 2 2 2 2 2 2 2 2 2 2 2 2 2 2 2 2 2 2 2 2 2 2 2 2 2 2 2 2 2 2 2 2 2 2 2 2 2 2 2 2 2 2 2 2
left_child=1 19 7 -4 5 6 59 8 11 40 13 -3 20 23 21 42 17 51 34 29 26 22 -10 49 -24 -22 31 35 30 46 -12 -11 61 36 41 -17 -34 -8 -36 56 -7 -19 43 -16 -23 57 -1 50 -41 -9 -15 53 -26 -2 -50 -55 -28 58 -27 60 -5 -33
right_child=16 2 3 4 -6 9 37 10 14 12 28 -13 -14 47 15 27 -18 18 -20 -21 25 44 24 -25 52 45 39 -29 -30 -31 -32 32 33 -35 38 -37 -38 -39 -40 48 -42 -43 -44 -45 -46 -47 -48 -49 54 -51 -52 -53 -54 55 -56 -57 -58 -59 -60 -61 -62 -63
leaf_value=0.13915019186516406 0.11693199865060758 -0.034517615490108504 0.13329179313498701 -0.016732464698037044 0.13538164507172731 0.040105832644213461 0.097006389891057823 0.018786546619438103 -0.036323251286169367 0.016342005647064811 0.13640076121714936 0.13015478664030056 0.082465935632407172 -0.045181831261996347 0.072807183907408771 0.0011397185449456165 0.1293616863063502 -0.017587881710864693 0.092532217710286926 0.13613318140141675 0.1152241277293633 -0.03574447689623924 0.020289500898782162 0.13029218157056474 -0.014247263656996446 -0.017506496727101886 -0.021944175881017831 0.10929478322783547 0.10201281755223933 0.1270406787964608 -0.052157685042962865 -0.044282435044924573 0.014855163732151037 -0.030476414192774567 0.11067702121736162 -0.026600950345420888 -0.049648824768747206 0.13521444387266721 0.014130989349468227 -0.058026067011890552 0.12906920365331295 0.095392693699206998 0.12950380507367132 0.02958172312732987 -0.021456608929553644 0.043740794530150111 0.062589202075912814 -0.04251458338485125 -0.039771145282549734 -0.029932562145730802 -0.061165408108919767 0.1303670471345226 0.010138015967810585 0.015013603532130368 0.025903330132743835 0.092819885686871273 0.076727510156662695 -0.028969915864697063 0.074529325812624864 0.0050051385917432821 0.11890442252525515 -0.026954840471046067
leaf_weight=85.407870292663574 569.74316196143627 182.42732451856136 2178.0956318825483 1943.3254191279411 883.32151585817337 114.64447043836117 1474.0703109353781 245.24856801331043 4594.3228584676981 497.25691370666027 35.75658617913723 397.60659599304199 187.77590745687485 1973.8083924353123 465.84345692396164 1617.7572428584099 1449.5785895437002 535.62328410148621 445.5684767216444 1509.3150167763233 95.140995725989342 6802.0629703700542 2061.8924850821495 65.016111642122269 3697.8975480496883 211.42744794487953 352.5725025832653 69.664719343185425 181.95929026603699 517.38024118542671 122.9997149258852 1790.9669976830482 1251.1135101765394 1180.5634188503027 118.50406458973885 2933.799573764205 214.48403087258339 751.32886058092117 140.91783720254898 2014.6410031765699 175.06709179282188 45.262786880135536 89.499223232269287 558.47515296936035 3413.0008275806904 177.34022206068039 753.66639412939548 2081.5536116808653 511.73317438364029 607.72325323522091 8786.5805748552084 930.58090031147003 806.90119788050652 83.061774715781212 109.54552780091763 270.36897233128548 44.375795215368271 513.48619194328785 111.33707967400551 1607.42112390697 24.703775882720947 3201.8093128502369
leaf_count=371 2498 818 9477 8915 3900 516 6491 1120 21231 2285 162 1753 832 9193 2082 7367 6319 2453 1971 6561 426 31265 9431 290 16958 975 1607 316 833 2281 571 8258 5706 5415 520 13503 984 3267 635 9322 766 199 400 2496 15690 794 3333 9633 2353 2784 40914 4053 3709 370 498 1194 199 2370 505 7315 108 14756
internal_value=-0.000100665 -0.0069433 -0.0124654 0.0166439 0.00357407 -0.00270032 0.0384514 -0.0275226 -0.0161431 -0.0214153 -0.04987 0.0783634 -0.0240945 -0.0523421 -0.018165 -0.00114318 0.0987173 0.0845687 0.0398434 0.11524 -0.0257243 -0.0227319 -0.0151913 -0.00556897 -0.000406563 0.00761267 -0.0290336 -0.0148411 0.0499655 0.0919929 -0.00968878 -0.0228029 -0.0253511 -0.0105975 0.0119055 -0.0167411 0.00541528 0.109906 0.0582333 -0.0457482 0.0938647 -0.00878441 0.0556894 0.04924 -0.0309707 -0.00248831 0.0703822 -0.0556856 -0.0509941 -0.0159247 -0.0582335 0.115593 -0.00987936 0.1007 -0.0281912 0.0745342 -0.0109134 -0.0122919 0.0142411 -0.0060227 -0.0150299 -0.0331705
internal_weight=70864.3 66275.1 63409.3 21617.5 19439.5 18556.1 5800.85 41791.8 27691.2 12755.3 14100.6 580.034 12465.6 13759.9 27111.1 5735.04 4589.21 3139.63 1285.88 2865.77 12277.8 21376.1 11161 917.988 6566.69 1108.73 11169.1 4621.22 340.716 1356.45 158.756 8136.19 7638.94 2646.16 840.308 4551.56 1465.6 2225.4 259.422 3032.87 289.712 580.886 1113.82 1024.32 10215.1 1013.59 839.074 12841.9 2635.92 852.972 10760.4 1853.75 4504.8 923.174 621.279 353.431 396.948 836.251 322.765 3575.45 1968.03 4992.78
internal_count=323317 303105 290559 98040 88563 84663 26096 192519 127019 58567 65500 2571 57285 63934 124448 26164 20212 13893 5778 12546 56453 98284 51329 4194 30098 5070 51383 21186 1566 5985 733 37404 35119 12105 3807 20870 6690 9758 1155 13979 1282 2652 4978 4578 46955 4644 3704 59740 12173 3904 50107 8115 20667 4062 2851 1564 1806 3850 1480 16338 9023 23014
is_linear=0
shrinkage=0.05


Tree=2
num_leaves=63
num_cat=0
split_feature=2 4 8 4 1 4 2 2 0 5 1 1 0 4 2 4 4 8 2 1 1 4 2 1 1 1 1 2 1 2 4 4 1 2 2 7 8 8 0 4 2 1 4 2 0 4 4 4 0 4 4 6 4 8 8 0 0 4 0 8 2 4
split_gain=16909.8 15830.6 9776.25 11525.3 4971.01 5110.15 6271.43 4141.68 1909.87 1522.72 1259.67 1216.31 1043.64 2168.06 785.877 1586.58 784.32 776.185 631.3 497.843 493.499 1326.27 465.379 446.076 426.707 422.314 383.258 369.93 346.565 342.247 334.907 323.393 318.727 302.787 294.137 278.682 247.058 224.762 220.672 362.419 209.226 182.165 180.841 160.825 160.101 181.312 153.349 151.288 133.371 239.383 132.579 130.938 129.02 158.174 126.613 126.256 123.988 123.242 163.301 304.142 125.049 123.096
threshold=0.94314097695449495 -0.88654321444033923 1.0000000180025095e-35 -0.71131110346687232 1.7258725935784165 -0.36084688151993827 -0.36477531563066123 -0.10319205711363004 -0.67723267852813895 1.0000000180025095e-35 -1.8198349458239993 1.8937891725332816 1.6503518681547853 0.34008156237392984 -0.36477531563066123 -0.53607899249340518 -0.53607899249340518 3.4544887073447978 1.2919186549772035 -0.706367341380439 -0.5076222782274239 -0.71131110346687232 -0.36477531563066123 0.7368287590264907 1.034542418234033 -0.95329117573829636 1.7258725935784165 0.071196781897724118 -1.1459232455030259 -0.36477531563066123 1.0000000180025095e-35 1.0000000180025095e-35 2.343811961994192 -0.10319205711363004 -0.27758089612498416 1.0000000180025095e-35 1.8201465492090692 1.0000000180025095e-35 0.68895825104662067 1.0000000180025095e-35 0.50716887942610955 0.34170962159551826 -0.18561477054647127 0.24558562090907829 0.72269136041883697 0.51531367334739697 -1.0617753254138063 -0.71131110346687232 0.95882312602435105 1.7419384501616662 -0.18561477054647127 1.0000000180025095e-35 -0.53607899249340518 1.8201465492090692 5.088830865480527 2.4262133837157598 0.11549539171894367 -0.36084688151993827 0.14922850109115998 1.0000000180025095e-35 1.2919186549772035 -0.18561477054647127
decision_type=2 2 2 2 2 2 2 2 2 2 2 2 2 2 2 2 2 2 2 2 2 2 2 2 2 2 2 2 2 2 2 2 2 2 2 2 2 2 2 2 2 2 2 2 2 2 2 2 2 2 2 2 2 2 2 2 2 2 2 2 2 2
left_child=1 22 7 -4 5 6 52 8 10 17 -3 16 13 57 20 41 23 19 32 -7 21 -10 28 43 27 -23 34 29 46 61 -26 40 -15 35 -17 -31 -8 48 39 -13 56 47 -22 -9 45 -32 -1 -16 -20 -50 -27 -18 53 -5 -19 -33 -29 -2 59 60 -59 -21
right_child=12 2 3 4 -6 9 36 11 14 -11 -12 38 -14 18 15 26 51 54 37 24 42 25 -24 -25 30 50 -28 31 -30 33 44 55 -34 -35 -36 -37 -38 -39 -40 -41 -42 -43 -44 -45 -46 -47 -48 -49 49 -51 -52 -53 -54 -55 -56 -57 -58 58 -60 -61 -62 -63
leaf_value=0.12755441516079008 0.12320888797811554 -0.036089290086228902 0.12228690342841067 -0.01599481295267868 0.11743634104982037 0.016652390081959432 0.088966954267134579 -0.00088213095708991769 -0.034962104155848321 0.13104089026745802 0.12688512866680732 0.12432897807126733 0.11781852548157995 -0.015405768098220833 0.065313009333971925 0.0010921691097498102 -0.054828498837623113 0.046193486458578591 0.0087476663328021308 -0.04309487194800931 -0.035744255653480682 0.019081552341418468 0.12486505547013832 0.11875887142535385 0.10219146658326834 -0.012609715193565865 0.10017639416300128 -0.02547279356102455 0.11243746803762887 0.013994464713453668 0.015532346770727706 -0.052906451523375878 0.11053703520465574 -0.028823237193907638 -0.025502713381990939 -0.048092241224248398 0.12395744941432743 0.08801028640937314 0.091271790653768392 -0.043316839057436191 0.085975607439093063 0.11829748852212688 -0.022603155902282301 -0.047234949761738178 0.033571258140307904 -0.037729126687025175 0.054589947077152215 0.027674371587351129 0.094173608413194776 -0.0097366725876838305 0.011068208267210972 0.153251451942681 0.0047464234040815179 0.10937213757412478 0.13048697311786303 0.10782211274676751 0.10071485039339936 -0.031289466556941647 0.10690181526652061 0.11569090590705465 0.088372689517467531 -0.026399284456048638
leaf_weight=80.556689471006393 748.90294533967972 171.76703685522079 2243.3037138134241 1931.6062001883984 896.77838312089443 681.60884121060371 1493.2549542188644 560.60998526215553 4483.1588263809681 162.03905345499516 382.79942712187767 45.938188508152962 1779.1242447942495 682.91081903874874 503.11575645208359 1618.8447962552309 12403.914714068174 131.97353465855122 239.30033984780312 1705.7741115838289 5496.8830498605967 2081.4652211070061 1561.0297733545303 65.869137227535248 80.535077601671219 3427.3120883107185 72.136779576539993 354.5548739284277 632.53268747031689 1266.4417872130871 266.59477415680885 2504.60924872756 54.224434077739716 1181.5203418731689 2905.9235214740038 210.82700663805008 761.85739421844482 347.97103010118008 154.35593688488007 108.09578712284565 54.884956121444702 92.980742454528809 4998.8333346843719 280.88749940693378 211.25065235793591 398.82852314412594 678.80644726753235 568.82460626959801 172.38413219153881 81.692898437380791 714.42385669052601 7.565008580684661 1610.2136459946632 25.491926908493042 67.247790202498436 12.278067231178282 20.597360268235207 82.311468973755836 851.12725840508938 117.10251012444496 29.714247733354568 3129.5841263830662
leaf_count=338 3168 779 9437 8915 3837 3114 6399 2562 21001 687 1627 200 7515 3117 2198 7369 58969 571 1077 7995 25590 9453 6558 283 349 15797 316 1627 2699 5745 1218 11810 238 5477 13506 985 3202 1514 685 510 239 400 23193 1313 944 1865 2948 2518 741 364 3272 36 7315 108 291 55 91 367 3628 496 129 14567
internal_value=-0.000126117 -0.00700763 -0.0123484 0.0150587 0.00250434 -0.00313905 0.0355219 -0.0266054 -0.0154422 -0.0212323 0.0764067 -0.049148 0.0867786 0.0705728 -0.0173312 -0.000956854 -0.051421 -0.0232417 0.0276405 -0.0248561 -0.0217811 -0.0142283 0.106122 -0.00654608 -0.0273383 0.000708245 -0.0141649 -0.0302674 0.085101 -0.0243657 0.00461272 -0.0452758 -0.00614128 -0.00995611 -0.0159878 0.00513382 0.100788 0.0572378 0.0490205 0.00668087 -0.00520484 0.0511633 -0.0294855 -0.0163545 -0.00435129 -0.0163905 0.0623303 0.0453401 0.0355345 0.0607635 -0.00852542 -0.0547017 -0.00573676 -0.0143619 0.074647 -0.0521224 -0.0185446 0.107621 0.0968152 0.0593473 0.000450308 -0.032289
internal_weight=70689.1 65502.3 62549.4 21403.7 19160.4 18263.6 5822.42 41145.7 27518.5 12441.2 554.566 13627.2 5186.77 3407.64 26963.9 5761.83 13318.8 12279.1 1578.48 12079.9 21202.1 10706.4 2952.93 907.367 11398.3 6223.2 4596.91 10441.1 1391.9 7494.15 957.209 2946.92 737.135 2658.79 4524.77 1477.27 2255.11 841.348 308.39 154.034 430.037 1164.92 10495.7 841.497 876.674 665.423 759.363 1071.94 493.377 254.077 4141.74 12411.5 3567.31 1957.1 199.221 2516.89 375.152 1829.16 1080.26 229.128 112.026 4835.36
internal_count=323317 300963 288420 96843 87406 83569 25939 191577 127019 57630 2406 64558 22354 14839 124613 26307 63163 56943 7051 56081 98306 49523 12543 4158 52967 28522 21191 48591 5985 34769 4376 13822 3355 12207 20875 6730 9601 3696 1395 710 1957 5116 48783 3875 4027 3083 3286 4716 2182 1105 19069 59005 16338 9023 862 11865 1718 7788 4620 992 496 22562
is_linear=0
shrinkage=0.05


Tree=3
num_leaves=63
num_cat=0
split_feature=2 4 8 4 1 4 2 2 0 5 1 1 0 4 4 2 4 8 2 3 1 4 1 2 1 1 2 1 1 1 4 2 3 4 2 2 7 8 1 2 4 4 4 1 3 4 2 4 1 3 4 4 4 4 3 4 3 3 1 1 4 4
split_gain=15002.8 14034.6 8909.95 10110.9 4365.97 4609.59 5493.53 3885.94 1709.17 1350.73 1120.98 1094.95 895.236 1813.81 740.807 719.463 1417.48 696.683 586.686 541.161 457.368 1184.74 416.61 402.388 393.417 390.978 492.643 339.167 298.011 286.513 283.923 269.674 261.344 296.583 227.31 275.038 243.366 214.518 200.276 191.263 165.296 160.448 160.174 157.383 154.88 162.573 148.974 144.449 179.979 142.532 137.342 134.646 134.275 132.89 139.64 137.857 132.309 131.813 124.797 124.551 164.828 142.665
threshold=0.94314097695449495 -0.88654321444033923 1.0000000180025095e-35 -0.71131110346687232 1.7258725935784165 -0.36084688151993827 -0.36477531563066123 -0.10319205711363004 -0.67723267852813895 1.0000000180025095e-35 1.8937891725332816 -1.8198349458239993 1.7515511962714341 0.34008156237392984 -0.53607899249340518 -0.36477531563066123 -0.53607899249340518 3.4544887073447978 1.2919186549772035 -0.31750911748526345 -0.47966018187479353 -0.71131110346687232 -1.0679877959606168 -0.36477531563066123 0.7368287590264907 1.01349744378138 0.071196781897724118 1.7258725935784165 -1.0279670722765968 2.343811961994192 1.0000000180025095e-35 -0.27758089612498416 0.59820020181827738 1.0000000180025095e-35 -0.36477531563066123 -0.10319205711363004 1.0000000180025095e-35 1.8201465492090692 -0.81285155332508163 2.0766684305282976 1.0000000180025095e-35 0.34008156237392984 -0.18561477054647127 0.29747743475170935 0.70467802964427062 0.51531367334739697 0.24558562090907829 -0.18561477054647127 -0.15016311609577088 0.2148800216447021 -0.18561477054647127 -0.71131110346687232 -1.0617753254138063 0.86577789529433102 0.78986029190506502 1.9171705611351333 -0.50916920757205097 -0.59435146983284548 -0.7437291378247779 1.3920827474097766 -0.36084688151993827 2.4428668940555345
decision_type=2 2 2 2 2 2 2 2 2 2 2 2 2 2 2 2 2 2 2 2 2 2 2 2 2 2 2 2 2 2 2 2 2 2 2 2 2 2 2 2 2 2 2 2 2 2 2 2 2 2 2 2 2 2 2 2 2 2 2 2 2 2
left_child=1 23 7 -4 5 6 -5 8 11 17 14 -3 13 -2 24 20 43 19 29 41 21 -10 -23 28 46 26 34 31 52 -15 -27 -18 33 -12 38 36 -36 -8 -21 53 -22 56 -28 51 45 49 -9 -40 -49 -32 58 -17 -1 -20 -55 -56 -7 -48 -24 -16 -61 -62
right_child=12 2 3 4 -6 9 37 10 15 -11 32 -13 -14 18 59 16 27 -19 39 25 40 22 50 -25 -26 30 42 -29 -30 -31 44 -33 -34 -35 35 -37 -38 -39 47 -41 -42 -43 -44 -45 -46 -47 57 48 -50 -51 -52 -53 -54 54 55 -57 -58 -59 -60 60 61 -63
leaf_value=0.11837260417131197 0.099923856839097089 -0.034732460123474425 0.11339712760980647 -0.0054642007778260204 0.10859404347770517 0.091670872478618687 0.082706826124015767 -0.00083828788926714349 -0.033711531337766505 0.12110196737547924 0.11445222207281908 0.11725670351960188 0.10995732306303455 -0.013743929459328924 -0.054588521097218262 0.060866117036977023 0.0010371572404797014 0.069542419585239212 0.06860498387127624 0.01252443302192165 -0.033204232496488149 0.023033151551196184 -0.0013532116445596932 0.11578176157908877 0.10966055130839146 0.090759177846662376 0.013430114257724444 0.092547198801848959 0.10765547860450977 0.10130759789552773 -0.013226183936383008 -0.02446889390986931 0.088615159596533155 -0.046541018343262491 0.01257959800504866 -0.02917301731495724 -0.046452647116705825 0.11494337935334811 -0.043027336343644279 0.091242578100610511 -0.019588007151735004 0.13418151415904303 -0.050112205124431292 0.10653596313926017 0.03230975284023363 -0.035851735974899317 -0.063530517152629071 -0.011427577060020327 -0.035512739709859166 0.06096605170386217 0.01106853870066637 0.025460657296201714 0.053998236546893265 -0.008056116615297702 0.087102862822901306 -0.00074201738579315727 0.008317025905659671 0.021394439297862715 -0.018617582462721285 0.14013692754431989 -0.042240064968089019 0.053391186537046859
leaf_weight=90.515062138438225 1874.6805541217327 169.609036937356 2296.7019226700068 3559.1866047084332 920.63985762000084 52.10809326171875 1525.0879197567701 560.43544346094131 4470.9156823456287 166.44606594741344 39.176837712526321 393.22673991322517 1765.1567320823669 689.54396031796932 11259.909046441317 509.91650032997131 1619.4600074589252 203.0193218588829 251.56214271485806 276.59164729714394 6629.5017016530037 1477.3047977387905 1905.8921592086554 1598.2672573328018 67.715695396065712 85.175485461950302 103.13055308163166 74.124184727668762 558.4223245382309 58.720930397510529 181.35439100861549 2877.990770727396 166.96922785043716 106.02960954606533 1212.5987496674061 1108.3621765524149 203.95673094689846 780.01033619046211 1686.9845943599939 261.69666574895382 3357.8220671415329 29.897225275635719 2586.2210882902145 104.33371177315712 216.31840935349464 418.78410784900188 217.96019226312637 1387.3016506880522 1759.2315063923597 100.66800765693188 861.49759858846664 567.25520786643028 770.95787627995014 193.18627768754959 113.52557778358459 73.62755112349987 551.22343704104424 57.808982655405998 2322.0570755302906 13.228385329246519 822.37834459543228 40.940843224525452
leaf_count=371 7803 779 9437 16338 3837 223 6399 2562 21231 687 165 1627 7277 3161 54763 2188 7369 862 1089 1261 31265 6662 8757 6558 283 361 474 316 2320 250 840 13506 721 509 5477 5198 971 3202 8032 1107 15690 135 12416 438 958 1986 1040 6517 8270 445 3934 2490 3294 862 480 325 2517 273 10767 63 3983 196
internal_value=-0.000144342 -0.00671756 -0.0118345 0.0142745 0.00236425 -0.00301121 0.0334813 -0.0255719 -0.0147742 -0.0203684 -0.0476814 0.0714552 0.0809025 0.0663182 -0.0499229 -0.0165866 -0.000918988 -0.0223043 0.0279473 -0.0238634 -0.0208737 -0.0138588 -0.000342279 0.098574 -0.00625542 -0.0263782 -0.0292726 -0.0135362 0.0792045 -0.00471513 0.00343631 -0.0152846 0.0459522 -0.00310489 -0.0227904 -0.010517 0.00408009 0.0936152 -0.0288547 0.0552975 -0.0286263 0.0211187 -0.0476755 0.0479004 -0.00467356 -0.0160892 -0.0156423 -0.0312226 -0.0248936 0.0132568 -0.00712742 0.0422211 0.0607621 0.0404111 0.0217633 0.052544 0.0155161 -0.0457279 -0.0108351 -0.0531753 -0.0350211 -0.037705
internal_weight=70404.3 65122.6 62104.5 21411 19114.3 18193.7 5864.28 40693.5 27340.9 12329.4 13352.6 562.836 5281.7 3516.54 13040.4 26778.1 5753.08 12162.9 1641.86 11959.9 21025 11037.7 6566.75 3018.16 903.92 11326.7 10324.4 4571.57 1419.9 748.265 1002.3 4497.45 312.176 145.206 7635.03 2524.92 1416.56 2305.1 5110.11 893.598 9987.32 633.229 2689.35 1181.51 917.125 700.807 836.205 4833.52 3146.53 282.022 5089.45 1077.17 861.473 631.902 380.339 187.153 603.332 275.769 4227.95 12136.5 876.548 863.319
internal_count=323317 300963 288420 96843 87406 83569 25939 191577 127019 57630 64558 2406 22354 15077 63163 124613 26307 56943 7274 56081 98306 51351 30120 12543 4158 53206 48616 21191 5985 3411 4590 20875 1395 674 35726 11646 6448 9601 24080 3863 46955 2875 12890 5116 4229 3271 3875 22819 14787 1285 23458 4678 3665 2756 1667 805 2740 1313 19524 59005 4242 4179
is_linear=0
shrinkage=0.05


Tree=4
num_leaves=63
num_cat=0
split_feature=4 8 4 0 4 0 3 0 5 3 4 0 8 3 0 4 0 4 0 4 0 0 4 0 4 4 0 3 3 0 4 4 0 3 8 3 0 0 3 0 4 0 3 0 4 4 4 0 0 3 4 0 3 4 3 0 4 0 0 4 0 3
split_gain=10988.1 11404.6 7304.69 6219.97 3883.88 2640.88 1885.06 1775.08 1247.67 1228.33 870.768 1611.88 665.886 507.772 573.741 2146.68 476.305 1072.88 391.349 257.573 366.546 273.505 297.521 243.957 276.746 243.414 324.417 212.815 208.882 410.563 189.463 186.345 185.112 196.084 175.675 166.185 216.855 156.705 153.455 145.838 135.593 130.706 189.723 124.929 1349.56 265.139 237.006 272.316 223.261 155.555 120.709 118.923 107.947 107.346 106.514 123.728 113.15 106.47 104.7 310.221 161.922 122.274
threshold=-0.88654321444033923 1.0000000180025095e-35 -0.71131110346687232 1.1612217822576489 -0.36084688151993827 1.5660190947242445 -0.65823816652844125 -0.1881025926310029 1.0000000180025095e-35 -0.65823816652844125 -0.36084688151993827 0.048029172974511099 3.4544887073447978 -0.33880468305046207 0.18296161046337628 0.16484945140046278 0.73955791510494506 1.041010006267798 0.21669471983559255 0.51531367334739697 0.43595993075499845 0.62149203230218808 1.041010006267798 1.7684177509575421 1.566706339188199 2.0924026721086002 2.308147500913003 0.065811062688311731 -0.3601002486156607 -0.40736780355040875 2.7933311160024688 2.2676347830820673 -0.32303503011986806 -0.25362242078966757 1.8201465492090692 -0.083257896268078627 0.081762282346727388 -0.35676813949208436 -0.53046477313724971 0.94195657133824284 2.968563226975935 -0.086903264514354053 -0.083257896268078627 0.13236194640505183 1.0000000180025095e-35 0.69054578432086389 0.16484945140046278 0.35162715732445776 0.21669471983559255 -0.040666765137681388 0.69054578432086389 -0.69409923321424716 0.25747115277509935 0.34008156237392984 -0.25362242078966757 -0.019437045769921484 0.51531367334739697 0.1998281651494844 -0.1881025926310029 -0.18561477054647127 -0.070036709828245905 0.044515497123113097
decision_type=2 2 2 2 2 2 2 2 2 2 2 2 2 2 2 2 2 2 2 2 2 2 2 2 2 2 2 2 2 2 2 2 2 2 2 2 2 2 2 2 2 2 2 2 2 2 2 2 2 2 2 2 2 2 2 2 2 2 2 2 2 2
left_child=-1 5 -3 4 7 6 51 9 12 -4 11 41 13 38 54 18 31 39 -16 20 -17 27 -23 24 -5 -7 -27 34 29 -11 -24 37 -30 -34 -21 -9 -37 -12 -6 50 -19 -8 -43 45 48 -39 47 -46 49 -45 -18 -2 -50 -40 55 56 -15 -29 -56 60 -60 -62
right_child=1 2 3 23 8 25 10 35 -10 28 16 -13 -14 14 15 19 17 40 -20 21 -22 22 30 -25 -26 26 -28 57 32 -31 -32 -33 33 -35 -36 36 -38 43 53 -41 -42 42 -44 44 46 -47 -48 -49 52 -51 -52 -53 -54 -55 58 -57 -58 -59 59 -61 61 -63
leaf_value=0.092280897170821927 0.0056388871127366859 0.10618002746178407 0.10971368882992434 0.10804335222988318 0.10329377480967539 0.10831542638586374 -0.017043396752374242 0.10723421138254037 0.11363679720767883 0.019785501390021793 -0.0018766161568087307 0.094799639066651703 0.070801201824456705 -0.012887750622474204 -0.0069029209050229211 -0.010926987467204725 0.080050450187883176 -0.027881874700864857 0.090399425068011685 -0.013246202684587894 0.062232167210399328 0.044534828460881158 -0.0241006714558087 0.10445812087510445 0.038562385511422027 0.0013161908844109339 0.084136047110394352 0.028733134990833575 -0.0058750367172228689 0.084260999161512862 0.10523708379565451 0.10393399048415375 0.06865567019927947 0.012772692537549063 0.10962735867500098 0.048876725492986009 0.10967894128345153 -0.035282911903736086 0.01735729798961452 0.096677131942888545 0.045488946096626175 0.080170591119774204 -0.0061750733699721116 0.10178915139606633 -0.019510198129837928 0.037832114127196143 -0.035782533633759224 0.061610339821561735 0.10089739388125914 -0.0039459766953887738 0.013339697840538329 0.071247693551212729 0.043051536615215047 0.11449041901134026 -0.036671100556647095 0.10696081561744697 0.11542764281680407 -0.042720702736283561 -0.01002189691579442 -0.027222128938526404 0.087127868724234142 0.015096497695765154
leaf_weight=3073.7553747594357 78.683954656124115 2378.0265377312899 385.62867440283298 241.80725604295731 69.308176010847092 284.8036718070507 15905.405840680003 659.068333953619 200.38976120948792 1831.0153180211782 445.15268747508526 332.76716926693916 238.03410637378693 729.09623290598392 123.14058916270733 797.58360655605793 109.98352232575417 1612.2240958660841 642.57418665289879 95.638522788882256 218.00900389254093 244.90950174629688 715.9599502235651 1580.0153297483921 351.84567430615425 200.48502232134342 288.24586941301823 53.800672888755798 1310.3201183974743 285.3891200274229 29.480687260627747 25.522124052047729 184.31674788892269 1058.0718048065901 41.804588824510574 397.34795363247395 232.42634855210781 14068.882789477706 441.37830637395382 176.58903586864471 65.528996005654335 82.014553144574165 283.61504411697388 41.017173394560814 624.17135341465473 125.09652312099934 6496.2016911804676 124.00900974869728 171.52126270532608 228.91728572547436 176.83616855740547 565.20052722096443 152.23002044856548 30.403413608670235 1708.5938990712166 23.373411759734154 17.595086142420769 1682.1540681421757 451.19304691255093 4576.0640367716551 88.661110118031502 175.60669793188572
leaf_count=12583 366 9623 1565 992 286 1170 74781 2680 814 8206 2086 1405 993 3433 561 3731 477 7649 2686 447 954 1115 3344 6434 1532 908 1196 256 5942 1176 127 120 759 4749 187 1736 949 67567 1984 749 308 342 1342 168 2976 596 31416 546 710 1091 828 2375 704 131 8147 96 80 8105 2142 21690 384 822
internal_value=-0.000157178 -0.0044008 0.0229482 0.0139154 0.00507511 -0.0199711 -0.0216615 0.0373042 -0.0101882 0.0239486 -0.0229866 -0.014136 -0.0120688 -0.0135912 -0.0156577 -0.00175589 -0.0289497 -0.00641506 0.0747515 -0.0168571 0.00477749 -0.0245296 -0.00327728 0.0941906 0.0668634 0.0715732 0.0501621 -0.0357644 0.0168652 0.0284798 -0.0189856 -0.0310939 0.0072357 0.0210633 0.0241269 0.0896836 0.0713166 -0.0312472 0.0338227 0.0609296 -0.0250162 -0.0163639 0.0131932 -0.0318407 -0.026774 -0.0346385 -0.0327134 -0.00606467 0.0457002 0.0121207 0.0389205 0.0632302 0.0736979 0.0236169 -0.0239682 -0.00631819 -0.00986412 -0.0405062 -0.0259099 -0.0224351 0.00818226 0.0392628
internal_weight=70028.9 66955.1 24290 21912 19738.3 42665.1 41891.6 6343.58 13394.8 5054.74 41247.7 16603.8 13194.4 12956.3 12415.2 4645.06 24643.9 2141.16 765.715 3879.34 1015.59 2863.75 990.35 2173.67 593.653 773.535 488.731 1873.4 4669.11 2116.4 745.441 22502.7 2552.71 1242.39 137.443 1288.84 629.774 22477.2 541.09 463.409 1677.75 16271 365.63 22032 7838.07 14194 7244.38 748.18 593.686 269.934 286.82 643.884 323.751 471.782 7770.18 770.065 746.691 1735.95 7000.12 5291.52 715.461 264.268
internal_count=323317 310734 108858 99235 90277 201876 198602 27762 62515 22397 195861 77870 61701 60708 58307 21513 117991 10011 3247 18266 4685 13581 4586 8958 2524 3274 2104 8995 20832 9382 3471 107980 11450 5508 634 5365 2685 107860 2401 2054 7957 76465 1684 105774 37611 68163 34938 3522 2673 1259 1305 2741 1414 2115 36794 3609 3513 8361 33185 25038 3348 1206
is_linear=0
shrinkage=0.05


Tree=5
num_leaves=63
num_cat=0
split_feature=2 4 4 1 2 4 2 5 3 3 0 1 1 4 1 0 3 1 4 2 2 2 3 3 2 1 1 1 4 4 1 4 1 2 2 3 2 7 3 4 4 3 3 4 0 4 4 1 2 4 3 4 1 1 4 7 1 1 3 4 7 0
split_gain=12343.9 11094.6 6117.1 6525.05 4836 2278.36 2215.24 1537.32 927.4 1109.87 768.821 1471.3 688.609 490.275 498.213 520.233 527.724 465.051 756.085 1005.24 461.398 444.889 387.785 376.359 367.852 273.075 271.465 271.029 300.792 263.529 262.895 258.952 257.955 246.065 236.959 226.368 208.036 195.642 188.772 170.581 168.418 260.442 164.942 157.284 153.923 153.689 146.753 214.727 137.449 124.775 123.306 117.431 116.513 113.644 111.1 102.792 100.383 99.682 94.9713 94.424 92.0617 88.6802
threshold=1.0303353964601722 -0.88654321444033923 -0.36084688151993827 2.0200930473634462 -0.36477531563066123 -0.53607899249340518 -0.10319205711363004 1.0000000180025095e-35 -0.16844015852887312 -0.59435146983284548 -0.64349956915592277 -1.5351551782739488 -0.6841145643728278 -0.71131110346687232 0.59454064238279225 -0.49170057698094943 -0.59435146983284548 2.9271163296481766 0.34008156237392984 2.1638628500339743 0.50716887942610955 -0.36477531563066123 0.27876671834029798 -0.46657807644165378 -0.36477531563066123 -1.1459232455030259 0.53435082586997551 1.5557641621932909 1.0000000180025095e-35 -0.18561477054647127 -0.37242049381029069 -0.71131110346687232 -0.26977939152575248 -0.1903864766193071 0.071196781897724118 -0.57305590426764696 -0.27758089612498416 1.0000000180025095e-35 1.2157716032090375 0.51531367334739697 0.86577789529433102 0.78986029190506502 0.34265341503589386 1.0000000180025095e-35 0.99255623539656734 0.34008156237392984 -0.53607899249340518 -1.0279670722765968 0.76875213794314079 1.9171705611351333 -0.61564703539804422 1.566706339188199 0.019095151253161673 1.1784500152295503 -1.0617753254138063 1.0000000180025095e-35 0.97509357996063784 -0.5076222782274239 0.89633811973105815 2.4428668940555345 1.0000000180025095e-35 0.098628837032835537
decision_type=2 2 2 2 2 2 2 2 2 2 2 2 2 2 2 2 2 2 2 2 2 2 2 2 2 2 2 2 2 2 2 2 2 2 2 2 2 2 2 2 2 2 2 2 2 2 2 2 2 2 2 2 2 2 2 2 2 2 2 2 2 2
left_child=1 24 4 6 10 13 12 20 9 -7 11 -3 43 -6 15 -15 50 18 -2 40 27 29 45 33 25 54 -10 34 -29 -14 46 -32 -31 -11 59 -22 37 -23 61 52 42 -42 -20 -4 -30 -5 -12 -48 -18 -38 -17 -43 -34 -53 -1 -36 -40 -25 -51 -8 -24 -37
right_child=17 2 3 22 5 8 7 -9 26 23 30 -13 21 14 -16 16 48 -19 19 -21 35 36 60 57 -26 -27 -28 28 44 32 31 -33 39 -35 55 38 49 -39 56 -41 41 51 -44 -45 -46 -47 47 -49 -50 58 -52 53 -54 -55 -56 -57 -58 -59 -60 -61 -62 -63
leaf_value=0.10530849004417893 0.091981112557186662 -0.024051621308877794 0.0056923269009496562 0.089350430362095681 0.081672419699452548 0.09910987665617782 -0.039395824597328828 0.10643015537369327 0.032992977849668835 0.048325194302098431 -0.0092472466299919828 0.099495613789251203 -0.035057747349953088 0.085739264550051653 0.10513273285144316 0.11758000984801485 0.032828562933879611 0.10458360405628647 0.020078865769109666 0.092318080288813414 0.10005632855959512 0.010797850966161726 0.10255385071297043 0.020140015091498722 0.10292592868774469 0.092076297680187602 0.092497117496502676 0.10273994792241821 -0.036984947912621031 -0.0055836702121721191 0.010864511900310594 -0.028798827723938658 -0.021173925269606222 -0.053280586175805202 -0.054195898358804541 -0.044255884884838587 -0.015908313649046681 -0.067236769111577194 -0.025142168249548531 -0.0090426473513894792 -0.022857091246340305 0.078549460262439585 0.083630414427606076 0.043327910381625701 0.054711872128072964 -0.051601366717507979 0.026714795208001931 -0.0038808992161765824 0.11161593859932438 0.10717382962580041 -0.066158382551490813 -0.038496498418149318 -0.036867038619714985 0.035337560513364785 0.042400803745817485 -0.024279414828255529 0.058888955921560494 -0.0080546163580429014 -0.0007551140169285627 0.032386090162969061 0.030201787469005655 -0.023746881071474869
leaf_weight=77.801594138145447 1745.7501733005047 490.05209890007973 1544.835553213954 27.978213518857956 2079.4536119699478 237.69775745272636 4154.0766319036484 173.94495067000389 463.98288664221764 65.465153828263283 9898.3119788616896 474.11795447766781 3970.3516704291105 471.13953673839569 335.59144389629364 9.6654341965913755 1385.7074087113142 1130.7407407462597 270.80482928454876 754.28592665493488 35.905865207314491 1678.1644242554903 1053.7587074935436 412.54863800108433 1622.1735980957747 659.71485057473183 326.58530361950397 53.856579065322876 316.5884061306715 2403.4713287502527 489.89713916182518 2571.8343361914158 2265.2373579442501 663.64834685623646 8134.5449361950159 729.01454998552799 3135.3673219829798 84.358263090252876 56.414120018482208 1319.6726426482201 403.61733201146126 108.66574870049953 163.88738435506821 338.41740620136261 53.498729661107063 62.632518976926804 736.44306978583336 2591.2473900020123 57.659974724054337 36.098610803484917 165.1763087362051 68.81801375746727 2475.0854706168175 214.74209299683571 716.99211512506008 297.63413685560226 96.052059829235077 1305.5892075151205 46.816698759794235 46.324253246188164 45.88026125729084 1902.8556973338127
leaf_count=312 7071 2255 7130 120 8610 969 20581 699 2069 289 46189 1938 19267 1965 1372 40 6002 4550 1194 3058 149 7648 4309 1848 6509 2668 1366 232 1532 11380 2255 12210 10850 3269 40716 3583 14820 395 262 6290 1853 449 701 1552 238 303 3327 12028 237 165 816 296 11852 912 2971 1487 427 6088 214 220 197 9222
internal_value=-0.00035237 -0.00611318 -0.0107288 -0.023804 0.00820573 0.0403911 -0.0276812 -0.0414059 0.00997588 -0.0040392 -0.00668168 0.0367011 -0.0162659 0.063859 0.0485835 0.0395005 0.0260382 0.0764937 0.0679797 0.0468692 -0.0430255 -0.0193719 0.0913427 -0.0140579 0.0865549 0.0682968 0.0575743 -0.046987 -0.00766321 -0.02443 -0.00924978 -0.0224524 -0.0194443 -0.0441577 -0.0483067 -0.0246856 -0.00674516 0.00706294 -0.0262943 -0.0249417 0.0190102 0.0053394 0.044039 0.0124554 -0.0237295 -0.00807916 -0.00619345 0.00289016 0.035976 -0.0143073 -0.0560011 0.0343548 -0.0293678 0.0174186 0.0485588 -0.0531399 0.0277965 -0.0012847 0.0462336 -0.0386042 0.0995351 -0.0294278
internal_weight=69708.6 64847.3 61770.7 36538.8 25231.8 7979.91 35348.6 16050.7 3475.52 2684.95 17251.9 964.17 19297.9 4504.39 2424.94 2089.35 1618.21 4861.31 3730.57 1984.82 15876.8 17414.6 1190.25 2447.25 3076.68 1454.51 790.568 13056.5 423.944 12433.8 16287.7 3061.73 8463.47 729.114 12632.6 2820.24 4980.81 1762.52 2784.34 6060 1230.54 795.843 434.692 1883.25 370.087 90.6107 13226 3327.69 1443.37 3218.28 174.842 392.226 4740.32 283.56 794.794 8432.18 152.466 1718.14 82.9153 4200.4 1099.64 2631.87
internal_count=323526 303442 290982 175840 115142 34940 170911 79348 15898 12463 80202 4193 91563 19042 10432 9060 7095 20084 15534 8463 78649 82881 4929 11494 12460 5951 3435 65006 2002 59639 76009 14465 40372 3558 63004 13643 23242 8043 13494 28992 5405 3510 1895 8682 1770 423 61544 15355 6239 15199 856 1657 22702 1208 3283 42203 689 7936 379 20801 4506 12805
is_linear=0
shrinkage=0.05


Tree=6
num_leaves=63
num_cat=0
split_feature=2 3 1 2 8 3 2 2 3 1 8 1 1 8 1 2 8 8 8 2 8 2 7 8 3 7 2 2 2 1 3 8 3 1 2 3 1 1 3 8 3 5 8 3 1 2 2 2 7 1 3 3 3 8 2 3 2 8 8 2 1 3
split_gain=11089.9 8660.98 4946.83 3706.3 2473.92 1813.56 1811.26 1425.25 1349.76 1346.37 1013.53 914.258 794.137 852.609 571.274 501.152 634.875 473.661 435.561 432.645 372.562 416.016 343.407 333.058 333.05 331.129 427.45 323.862 305.38 302.921 281.561 230.335 217.298 280.466 210.301 207.433 342.589 201.117 204.531 197.847 192.636 178.802 174.701 160.813 158.859 156.084 149.26 146.679 145.449 143.691 143.511 141.748 140.021 134.238 323.488 132.674 121.532 116.239 115.18 108.233 107.751 190.888
threshold=1.0303353964601722 -0.55176033870244823 1.8937891725332816 1.0000000180025095e-35 1.0000000180025095e-35 -0.33880468305046207 -0.36477531563066123 -0.36477531563066123 -0.29621355192006482 -1.0885337968812565 1.0000000180025095e-35 0.97509357996063784 -0.6841145643728278 1.8201465492090692 -0.11830628058265913 -0.36477531563066123 1.0000000180025095e-35 1.0000000180025095e-35 1.0000000180025095e-35 2.7742237865737143 1.0000000180025095e-35 -0.1903864766193071 1.0000000180025095e-35 1.0000000180025095e-35 -0.61564703539804422 1.0000000180025095e-35 -0.10319205711363004 0.3327800404147554 -0.10319205711363004 -1.2926533685596835 0.64079133294867463 3.4544887073447978 -0.040666765137681388 0.28727743313694309 0.50716887942610955 -0.65823816652844125 -1.8198349458239993 -0.15016311609577088 0.19358445607950348 1.0000000180025095e-35 -0.44528251087645515 1.0000000180025095e-35 3.4544887073447978 -0.42398694531125658 -1.3358900799861206 0.41997445992043247 -0.36477531563066123 1.2919186549772035 1.0000000180025095e-35 -0.025856082594922284 -0.42398694531125658 -0.7008292976588385 -0.061962330702880007 1.0000000180025095e-35 0.15839120140340121 -0.21103128965927034 0.85594655744881787 1.0000000180025095e-35 1.0000000180025095e-35 0.071196781897724118 2.5578506580330385 0.065811062688311731
decision_type=2 2 2 2 2 2 2 2 2 2 2 2 2 2 2 2 2 2 2 2 2 2 2 2 2 2 2 2 2 2 2 2 2 2 2 2 2 2 2 2 2 2 2 2 2 2 2 2 2 2 2 2 2 2 2 2 2 2 2 2 2 2
left_child=1 7 3 5 34 6 10 9 50 35 29 31 44 15 53 37 28 19 27 22 21 40 47 30 -11 26 55 -16 -17 -3 45 41 33 -15 -5 36 51 -14 -39 -37 -8 49 -34 -23 -7 -4 52 -2 -13 -10 -6 -1 -46 54 -9 -18 59 -26 -48 -51 61 -19
right_child=17 2 23 4 8 12 20 14 11 24 -12 48 13 32 18 16 25 60 -20 -21 -22 43 -24 -25 57 -27 -28 -29 -30 -31 -32 -33 42 -35 -36 39 -38 38 -40 -41 -42 -43 -44 -45 46 -47 58 -49 -50 56 -52 -53 -54 -55 -56 -57 -58 -59 -60 -61 -62 -63
leaf_value=0.059889948185852776 0.029360964746551706 0.0094811457165548986 0.04905549662081897 -0.052885916420297364 0.087000547586754962 0.0428866185233054 0.074501796874747006 0.080134992083100071 0.010365853181645191 0.10271606854569792 0.028289486491829774 0.025194865162674707 -0.018053325219969361 0.016030264460394402 0.057302080271715829 -0.0095608508017136964 0.059259608448321233 0.094722952579397404 0.10101619274952203 0.095169566104315109 0.07160147414446752 0.026967429017341577 -0.024072850184595627 0.096962761691924929 0.013163460327460456 -0.042766661272647194 -0.011456112833548641 -0.06328825706666788 -0.034711088449154368 -0.01730956166631133 0.081073839601107978 0.079134462129551067 -0.0082787625238966156 0.098558193353787696 -0.034573888686208087 -0.011236402205613625 0.084672210745118145 -0.035137039217308617 -0.016916318957925374 0.029940696975800297 0.032212999788481363 0.10575770052572964 0.069386829120018478 -0.016705578839895582 -0.002873238514505229 -0.039684456024582405 0.01190236758568429 0.061746328595226711 -0.034067082796146925 -0.013111217506521042 0.040009206337743006 -0.015732551817506633 0.022895548145200891 0.097099520176513063 -0.012687622120456613 0.025290565950554258 0.022394116155406273 0.094634267190657484 0.067708136875802544 -0.041958059009297048 0.099132425414161549 0.06002696512299413
leaf_weight=81.869166746735573 530.31163686513901 1357.016953766346 90.929235234856606 8220.9358503073454 278.74381972849369 279.89616151154041 542.27396680414677 1469.7146560102701 174.59904283285141 573.06361047923565 2192.2048304080963 1123.7608748078346 9696.1661627590656 196.00430075824261 85.736134454607964 4085.2556293010712 377.67718032002449 845.86193186044693 104.3282800167799 524.99633437395096 917.5321229249239 453.59518738090992 170.29723779857159 973.81474788486958 183.20364056527615 244.48313766717911 799.49290363490582 158.80308182537556 1713.0956667363644 4742.6991399675608 239.59984239935875 46.780480429530144 334.9172507673502 216.83943311870098 1937.3509733080864 1293.7687899172306 204.69985391199589 4707.7628375291824 2289.0356252044439 376.63682298362255 534.95266498625278 23.161071464419365 92.378319621086121 393.75866802036762 3371.3038189262152 108.89276848733425 237.84860278666019 1026.2037410140038 114.04562263190746 375.08790062367916 389.52647197246552 254.88950873911381 624.87616264820099 1081.4752961695194 100.26550690829754 1203.1829025149345 85.490205526351929 57.529027834534645 151.26225778460503 2443.0581021308899 1043.9081348776817 746.09095732867718
leaf_count=346 2283 6362 397 42287 1144 1266 2259 5996 821 2303 9673 5073 46530 895 377 19142 1595 3413 420 2107 3764 2004 751 3918 835 1203 3769 806 8679 22370 992 194 1582 885 9674 5952 830 22908 11018 1623 2339 93 382 1842 15580 531 1093 4240 546 1795 1688 1123 2864 4337 462 5349 388 240 637 12261 4180 3110
internal_value=-0.000348551 -0.00585873 -0.0117494 -0.0140418 -0.0351709 -0.00634393 0.0109369 0.0512114 -0.0065855 0.0269969 -0.000869716 -0.0166714 -0.0126273 -0.0160409 0.0756304 -0.0176983 -0.00775556 0.0722619 0.0154825 0.0554216 0.0453831 0.0328836 0.0433372 0.0806576 0.0819845 0.0126466 0.0183381 -0.0210089 -0.0169914 -0.0113494 0.0445233 -0.0309856 0.0335069 0.0593767 -0.0493935 0.00676575 0.0336599 -0.0227154 -0.029176 -0.00195194 0.0535011 -0.0326466 0.008512 0.00667293 0.00636561 0.000696763 0.00403462 0.0507125 0.0197348 -0.033688 0.0596099 0.00265198 0.00115618 0.0835444 0.074207 0.033406 -0.036337 0.0326329 0.0335962 -0.0381186 0.0866484 0.0784622
internal_weight=69294.9 64407.3 58381.3 56968.1 15212.5 41755.5 11134 6025.98 5054.25 3025.66 8291.92 4385.98 30621.5 25956.3 3000.32 25116.2 8423.19 4887.67 348.867 2251.81 2842.11 1924.58 1726.81 1413.24 813.796 2624.84 2380.35 244.539 5798.35 6099.72 439.422 3148.18 840.139 412.844 10158.3 2211.86 541.459 16693 6996.8 1670.41 1077.23 3101.4 427.296 847.354 4665.19 199.822 4385.29 1556.52 1237.81 3078.24 668.27 336.759 3996.18 2651.46 1569.98 1580.86 2903.64 240.733 389.111 2818.15 2635.86 1591.95
internal_count=323526 303442 277792 271954 75964 195990 50613 25650 24003 13252 38405 21171 145377 123937 12398 120193 39737 20084 1603 9381 12208 8444 7274 5838 3378 11916 10713 1183 27821 28732 1920 15552 3744 1780 51961 9874 2299 80456 33926 7575 4598 15358 1964 3846 21440 928 20174 6523 5619 15265 2832 1469 18444 10795 6458 6944 14444 1075 1730 14056 10703 6523
is_linear=0
shrinkage=0.05


Tree=7
num_leaves=63
num_cat=0
split_feature=2 4 8 4 1 4 2 2 3 5 1 1 8 1 4 2 1 8 1 3 2 4 1 2 1 3 4 3 4 2 2 4 3 4 3 4 2 4 2 1 1 4 2 1 3 7 8 1 3 4 2 3 8 1 3 4 4 4 4 3 3 4
split_gain=9981.99 9459.43 6963.25 7124.19 3261.22 3247.23 4020.83 3152.27 1159.42 909.799 830.573 725.65 516.152 439.489 985.186 679.955 458.266 429.643 407.819 395.796 393.279 744.316 341.321 398.283 315.315 294.95 254.275 270.957 242.451 220.419 209.795 211.03 208.587 209.579 208.522 196.783 194.02 176.244 723.271 223.299 176.255 176.08 173.344 170.78 168.808 161.951 151.918 150.08 148.434 145.475 142.451 136.28 119.659 117.574 114.255 111.263 111.141 136.95 108.092 107.684 107.038 203.948
threshold=1.0303353964601722 -0.88654321444033923 1.0000000180025095e-35 -0.71131110346687232 1.8937891725332816 -0.36084688151993827 -0.36477531563066123 1.0000000180025095e-35 -0.65823816652844125 1.0000000180025095e-35 2.0200930473634462 -1.8198349458239993 3.4544887073447978 -0.5076222782274239 -0.71131110346687232 -0.36477531563066123 1.6067626537267417 1.0000000180025095e-35 -1.2718504393730321 -0.31750911748526345 2.5998349475623601 0.34008156237392984 1.1272760791567007 0.071196781897724118 -1.1459232455030259 0.70467802964427062 -0.53607899249340518 -0.33880468305046207 1.0000000180025095e-35 0.50716887942610955 -0.36477531563066123 -0.18561477054647127 -0.50916920757205097 0.51531367334739697 0.47042680842708562 1.7419384501616662 -0.36477531563066123 -0.53607899249340518 -0.36477531563066123 0.29747743475170935 -0.051823676654543051 1.0000000180025095e-35 -0.10319205711363004 -0.81285155332508163 0.023219931557914474 1.0000000180025095e-35 1.8201465492090692 -0.74937753961990017 1.0000000180025095e-35 0.16484945140046278 0.15839120140340121 0.12969775938390762 5.088830865480527 0.4879613037412478 -0.50916920757205097 -0.71131110346687232 0.51531367334739697 2.0924026721086002 0.34008156237392984 2.7490523239033391 -0.040666765137681388 -0.18561477054647127
decision_type=2 2 2 2 2 2 2 2 2 2 2 2 2 2 2 2 2 2 2 2 2 2 2 2 2 2 2 2 2 2 2 2 2 2 2 2 2 2 2 2 2 2 2 2 2 2 2 2 2 2 2 2 2 2 2 2 2 2 2 2 2 2
left_child=1 24 7 -4 5 6 -5 8 11 12 26 -3 19 14 15 -10 32 20 -16 54 21 -2 23 30 36 -23 27 -9 -24 -28 43 -32 -15 37 49 -27 -1 38 -34 55 -39 48 45 -21 -35 -33 56 -20 -25 -12 53 -45 -14 -8 -7 -40 -30 -58 -56 -43 -31 -62
right_child=17 2 3 4 -6 9 50 10 13 -11 34 -13 52 16 18 -17 -18 -19 47 22 -22 25 28 41 -26 35 29 -29 46 60 31 42 33 44 -36 -37 -38 40 39 -41 -42 59 -44 51 -46 -47 -48 -49 -50 -51 -52 -53 -54 -55 58 -57 57 -59 -60 -61 61 -63
leaf_value=0.04550185803450732 0.074034077378199767 -0.031754345098276987 0.094253313987785289 -0.0057840442681688989 0.091863624507681776 0.082436119629644949 0.062775168862051756 -0.031829770962694376 -0.031360080738935862 0.096542663200923973 0.083881646727734849 0.085471556498398799 0.030642760895677676 0.043584930157265937 0.036609046587146025 0.040513900086779207 0.065796506970804677 0.082086971152400268 0.0070855815134521598 0.013534337731546506 0.088844280724576091 -0.018159833321094519 0.088553919848679982 -0.022084385816157723 0.092599916140932992 0.073454443399138203 -0.053820878963585145 0.057281750916011932 0.04149808096969914 -0.050258741300117649 0.030710381435101498 0.0078581308637919595 -0.029604381309780492 0.06103582869357236 0.075152515853683863 0.0016611206310784788 0.087486807452783658 -0.020676559641968763 0.047993010927113861 0.088272649803901662 -0.032875090369389091 -0.046105650508715679 -0.02783671230814665 -0.03240272272631535 -0.0098698406207042514 -0.043607017079864641 -0.041804889420637419 -0.0084265812483670186 0.067929091122853266 -0.052933044820463175 0.094862277122218508 -0.013424526952096387 0.10859424664757503 0.097468681514581684 0.0060487259524087018 0.00086221018210424312 -0.0179354641553796 0.051842899908020837 0.10125005811132302 0.098443544569486729 0.11878233650026385 -0.028775547635722827
leaf_weight=800.73942995071411 838.96419480443001 184.38982504606247 2393.1428859680891 3560.5308462530375 974.28900189697742 62.112643107771873 1334.6096746325493 493.66964519023895 4304.9493356496096 174.23846371471882 26.533387273550034 464.75738641619682 139.8436498939991 122.1917279958725 832.74909840524197 356.29563307762146 151.74963176250458 2643.0230179429054 3129.2427905201912 274.53619262576103 557.78417937457561 480.88594369590282 83.61327950656414 220.22340714931488 1871.5618191063404 208.47676736116409 7752.5096567869186 103.12416806817055 199.18048250675201 715.30470369756222 322.00317938625813 1027.5781300365925 1643.2826667875051 87.857848912477493 167.93881049752235 176.04510965943336 419.23697978258133 6116.0327314585447 191.45377670228481 137.92855875194073 5740.6265680193901 2445.0673490911722 1014.4482393115759 3350.2510470300913 1882.5818907022476 179.57489448785782 177.10607582330704 3107.8451585024595 57.824885323643684 72.571811869740486 801.22445020079613 1318.0963463634253 75.978286370635033 298.89629198610783 557.77000980079174 361.97931113839149 343.4628541469574 88.418778136372566 31.499814480543137 12.952464982867239 23.888437524437904 1187.1827117353678
leaf_count=3283 3380 847 9588 16314 3910 253 5411 2369 21029 699 109 1865 576 544 3723 1478 653 10703 14368 1249 2236 2161 344 1072 7498 856 41118 446 895 3680 1460 4637 8026 416 691 748 1679 29814 805 573 28321 12560 4962 16564 9088 908 834 14628 256 367 3219 6395 309 1202 2521 1589 1637 373 132 56 112 5987
internal_value=-0.000342834 -0.00561386 -0.00994677 0.0129231 0.00274627 -0.00203726 0.0280764 -0.0224504 -0.0138914 -0.0168894 -0.0458442 0.0521736 -0.0185389 -0.0154139 -0.0080213 -0.0258662 -0.0206905 0.0683968 0.0037441 -0.0199445 0.0524018 0.0404754 -0.0221646 -0.0247525 0.0797077 0.00794212 -0.0481066 -0.0164316 0.00750151 -0.0500596 -0.0187862 -0.00711822 -0.0214965 -0.0219885 0.0412113 0.0405854 0.0599297 -0.0241102 -0.0115532 0.0313524 -0.0265827 -0.0410779 -0.0126012 -0.0247905 -0.0067083 0.000202226 -0.000884187 -0.000643891 -0.00336455 -0.0163037 0.0775935 -0.0270443 0.0580849 0.0691233 0.0179364 0.0171666 0.0106001 -0.0036498 0.0111378 -0.045344 -0.0349229 -0.025865
internal_weight=68873.8 63968.6 60877.1 21518.5 19125.3 18151 5995.26 39358.6 28815.9 12155.8 10542.7 649.147 11981.5 28166.8 11731.1 4661.24 16435.7 4905.18 7069.84 11765.7 2262.16 1704.37 11114.3 10222.6 3091.54 865.408 10275.7 596.794 891.781 9678.89 7486.49 2543.6 16283.9 16161.7 267.044 384.522 1219.98 14191.3 2334.64 691.362 11856.7 2736.07 2221.6 4942.88 1970.44 1207.15 808.168 6237.09 278.048 99.1052 2434.73 4668.35 215.822 1633.51 651.382 553.433 631.062 431.882 589.27 2458.02 1926.38 1211.07
internal_count=323526 303442 290982 98336 88748 84838 26146 192646 137767 58692 54879 2712 57993 135055 55226 22507 79829 20084 32719 57108 9381 7145 54202 50119 12460 3765 53712 2815 4083 50897 36175 11967 79176 78632 1167 1604 4962 69128 10993 2967 58135 13944 10507 24208 9504 5545 3739 28996 1328 476 9832 22959 885 6613 2906 2394 2905 2010 2653 12616 9779 6099
is_linear=0
shrinkage=0.05


Tree=8
num_leaves=63
num_cat=0
split_feature=2 3 8 2 1 3 2 1 1 8 1 0 2 2 1 2 1 1 1 1 2 2 8 0 0 0 0 2 2 0 1 1 3 7 0 0 8 2 0 8 0 1 0 0 0 2 7 0 0 2 0 0 2 0 2 3 2 0 2 8 1 8
split_gain=9031.63 7081.22 3673.74 3292.04 2325.72 2631.05 1164.66 1119.29 771.806 710.392 668.78 683.357 634.142 574.296 553.985 662.875 470.572 455.8 537.188 419.87 407.142 511.674 353.108 417.28 335.196 320.288 279.803 243.539 226.667 225.043 262.872 221.33 214.878 200.584 195.03 194.896 177.664 174.256 328.597 172.916 209.724 302.17 169.19 166.057 155.638 143.591 203.525 135.332 135.302 134.601 134.511 130.884 130.255 340.236 267.025 139.123 128.132 123.262 121.557 114.981 113.948 113.9
threshold=0.94314097695449495 -0.55176033870244823 1.0000000180025095e-35 1.0000000180025095e-35 1.8937891725332816 -0.31750911748526345 -0.36477531563066123 -1.0885337968812565 1.8012831539571583 1.8201465492090692 -0.5076222782274239 -0.49170057698094943 -0.36477531563066123 -0.36477531563066123 2.5578506580330385 1.2047242354715264 -0.11830628058265913 -0.60584553562640464 1.1272760791567007 1.6067626537267417 0.071196781897724118 -0.36477531563066123 1.0000000180025095e-35 -0.50856713166705758 -0.44110091292262504 -0.20496914731711105 -0.64349956915592277 -0.36477531563066123 -0.36477531563066123 -0.67723267852813895 -1.7476699028923253 -1.3358900799861206 0.64079133294867463 1.0000000180025095e-35 0.031162618288402947 0.1998281651494844 1.0000000180025095e-35 2.8614182060793909 0.46969304012721474 5.088830865480527 -0.17123603794489475 0.18899773856049426 -0.40736780355040875 -0.17123603794489475 -0.35676813949208436 -0.10319205711363004 1.0000000180025095e-35 -0.44110091292262504 -0.47483402229484134 0.50716887942610955 -0.71096578790035536 -0.33990158480597615 -0.36477531563066123 -0.40736780355040875 -0.1903864766193071 -0.4878736420068524 0.50716887942610955 0.11549539171894367 -0.1903864766193071 1.0000000180025095e-35 -1.1922980546427613 1.0000000180025095e-35
decision_type=2 2 2 2 2 2 2 2 2 2 2 2 2 2 2 2 2 2 2 2 2 2 2 2 2 2 2 2 2 2 2 2 2 2 2 2 2 2 2 2 2 2 2 2 2 2 2 2 2 2 2 2 2 2 2 2 2 2 2 2 2 2
left_child=1 6 3 10 5 13 7 29 47 17 12 28 31 42 15 35 -8 27 20 52 21 44 23 -18 -14 -23 -9 60 -12 30 50 -3 -10 37 -20 59 -31 38 -17 40 41 -11 -4 -22 -19 46 -27 -5 -33 -49 -1 -15 57 55 -55 -54 -45 -13 -26 -2 -7 -28
right_child=14 2 4 8 -6 9 16 26 32 39 11 19 24 51 -16 33 22 18 34 -21 43 25 -24 -25 58 45 61 -29 -30 36 -32 48 -34 -35 -36 -37 -38 -39 -40 -41 -42 -43 -44 56 -46 -47 -48 49 -50 -51 -52 -53 53 54 -56 -57 -58 -59 -60 -61 -62 -63
leaf_value=0.047595239766432429 0.018925107098919036 0.012140597028532946 0.028969432626486727 0.025680837061299179 0.087190697881599971 0.046940782243499984 0.075494450579474376 0.092717075762610873 -0.012271536089392063 0.0043469327366805772 0.0018825274005664005 -0.026670226288127482 0.058464858630452754 0.069434038623714986 0.089114358225659024 0.077023258749817719 0.094981584663009794 0.025263061348406887 0.080510913427709219 0.062168967664709723 0.029284839419416793 0.038608851166812147 0.090997375527476554 -0.058578171965531001 0.021500937863111483 0.016217205147212296 0.0066875698336446229 0.064560910872242375 0.077961045215496183 -0.01390852429549547 0.077278804105177581 -0.019419025955378918 0.062879456746029738 0.018759615481660181 0.013842502317959471 0.0019841641147336528 0.025166287674605905 0.092026071920869534 0.03733389185091579 0.10182150775912391 0.0095104555313284961 0.091132489666003527 -0.0042066231764330232 -0.042723541579282133 -0.023587744118566453 -0.017780925035057914 -0.042938681719754748 -0.051194696766044857 -0.0054135449035316602 -0.035578924592538148 -0.012013263874853679 0.038089433965680874 -0.035978993948638599 -0.0065378560464802024 -0.027993786064990495 0.042987655724075209 -0.010389338270475786 -0.012923430562211331 -0.020882951728338796 0.076968569602946027 0.0013957963156363349 0.087099017047641336
leaf_weight=143.83122175931931 168.46659734845161 1376.4315187186003 2055.4249871969223 62.060610726475716 854.77628067135811 151.38612870872021 2626.4667502641678 584.06023146212101 193.27175505459309 183.66727703809738 167.00424449145794 7729.7821288406849 585.33474425971508 1190.7183719724417 1377.7283596098423 1323.277887493372 58.824653893709183 168.79856941103935 132.72290445864201 156.30304947495461 95.417920529842377 562.51548290252686 101.32863332331181 178.43002808094025 560.65250270068645 1035.9937361031771 169.84021987020969 196.39902430772781 236.62338221073151 1191.4119618535042 206.30497214198112 2434.7997630387545 187.29313522577286 224.56290724873543 632.35112085938454 676.9515480697155 384.87308458983898 589.01692663133144 860.7031415104866 69.376853078603745 1075.39912314713 220.96685543656349 472.66902306675911 2077.3713739663363 4785.2837918698788 990.56459668278694 169.13679005205631 7704.5760226398706 5910.6148642599583 1681.0330627113581 276.73506835103035 462.36963970959187 66.861966788768768 2813.0141181945801 2992.945892110467 336.42218896746635 359.39507019519806 2066.646862000227 242.26892878115177 172.87636755406857 1479.0555472820997 59.454085201025009
leaf_count=594 730 6417 8967 281 3436 677 10712 2349 944 836 792 38393 2437 4827 5551 5349 242 755 555 663 430 2397 407 939 2533 4589 783 819 962 5582 830 11663 784 943 2874 3038 1651 2364 3580 279 5014 904 2172 10831 23551 4836 869 41795 27815 8728 1217 1969 306 13246 15081 1446 1774 10065 1156 705 6846 246
internal_value=-0.00033814 -0.00566202 -0.0110999 -0.0202405 0.00655092 0.00283847 0.0460892 0.0242153 -0.045099 -0.00730874 -0.0114127 -0.017778 -0.0019218 0.037751 0.0617562 0.0523703 0.0683427 -0.011169 -0.0150069 -0.0193828 -0.0180252 -0.0123136 0.0128648 -0.0205047 0.0296896 0.00494644 0.0743422 0.0119607 0.0464829 0.00570964 0.0310497 -0.00643583 0.0247137 0.0642103 0.025408 0.017517 -0.00436784 0.067891 0.0613817 0.0246721 0.0210557 0.0517397 0.0227666 -0.0354209 -0.0219233 -0.00367753 0.00791484 -0.0479112 -0.00949969 -0.0483978 0.0083725 0.0606669 -0.0201792 -0.0145136 -0.0175983 0.0298955 -0.0379546 -0.0237702 0.00871226 0.0483218 0.00562464 0.0275376
internal_weight=68300.8 62907.3 56925.7 37503.9 19421.8 18567 5981.56 3016.51 9828.23 14385.8 27675.7 16565.6 11110.1 4181.18 5393.58 4015.86 2965.05 12836.4 11009.6 16162 10244.5 7712.29 338.583 237.255 1388.26 2758.21 813.355 1826.84 403.628 2203.16 626.871 9721.85 380.565 2997.56 765.074 1018.29 1576.29 2773 2183.98 1549.41 1480.03 404.634 2528.09 2532.18 4954.08 2195.7 1205.13 9447.67 8345.41 9385.61 420.566 1653.09 16005.7 6209.24 5805.96 403.284 2436.77 9796.43 802.921 341.343 1630.44 229.294
internal_count=323526 301266 275714 185507 90207 86771 25552 13252 52532 68836 132975 80954 52021 17935 22260 16709 12300 61803 53461 79200 50032 36997 1588 1181 6126 12691 3378 8342 1754 9874 2641 45895 1728 12236 3429 4473 7233 11293 8929 7033 6754 1740 11139 13035 24306 10294 5458 50804 39478 50523 1811 6796 78537 30079 28327 1752 12605 48458 3689 1435 7523 1029
is_linear=0
shrinkage=0.05


Tree=9
num_leaves=63
num_cat=0
split_feature=1 3 8 3 1 1 0 1 3 0 3 8 1 1 8 0 3 3 3 1 0 0 3 1 0 1 8 0 1 1 0 0 8 7 3 1 0 1 3 1 1 3 0 0 0 0 1 1 5 0 0 0 1 0 0 0 8 1 0 1 0 0
split_gain=6657.86 6203.39 3170.57 2091.57 1701.99 1287.43 1127.48 867.908 884.224 729.695 549.512 498.736 445.677 427.701 393.347 552.119 374.959 371.494 264.34 245.039 239.063 210.184 416.717 205.026 323.199 210.065 200.417 224.092 265.489 187.814 289.12 150.888 149.957 148.881 158.129 141.639 141.606 348.997 139.113 137.495 131.091 131.014 123.488 118.779 147.547 154.341 116.869 107.916 100.519 100.355 95.6156 95.4119 94.5816 82.3111 81.8911 81.8886 80.8556 79.8462 79.2725 79.1395 78.2521 77.0976
threshold=2.0200930473634462 -0.55176033870244823 1.0000000180025095e-35 -0.31750911748526345 0.95559308534330201 -0.41743879728031269 2.2069481727963542 -1.2451983644776632 -0.7008292976588385 -0.49170057698094943 -0.61564703539804422 1.8201465492090692 -0.60584553562640464 -0.43488161707661793 1.0000000180025095e-35 -0.49170057698094943 1.0000000180025095e-35 -0.23232685522446897 0.32135784947069523 -1.2926533685596835 1.1949548916298653 0.13236194640505183 0.065811062688311731 0.057073436566678286 -0.35676813949208436 1.6067626537267417 5.088830865480527 -0.17123603794489475 0.0087403129276691308 -1.5351551782739488 -0.67723267852813895 -0.036303600456029629 1.0000000180025095e-35 1.0000000180025095e-35 1.6203873489478116 0.63233584480753857 1.144355227571541 0.91870863930104163 -0.53046477313724971 -0.80040469545900172 1.2927617900154409 -0.42398694531125658 -0.45796746760873314 0.031162618288402947 0.35162715732445776 0.36849371201056585 0.019095151253161673 -1.1922980546427613 1.0000000180025095e-35 -0.55916679572538197 0.14922850109115998 2.5274127118324086 -0.83656503402269033 -0.55916679572538197 -0.086903264514354053 -0.17123603794489475 3.4544887073447978 0.29747743475170935 -0.39050124886430065 2.343811961994192 -0.1881025926310029 -0.32303503011986806
decision_type=2 2 2 2 2 2 2 2 2 2 2 2 2 2 2 2 2 2 2 2 2 2 2 2 2 2 2 2 2 2 2 2 2 2 2 2 2 2 2 2 2 2 2 2 2 2 2 2 2 2 2 2 2 2 2 2 2 2 2 2 2 2
left_child=1 7 5 13 11 19 9 8 -1 -7 -9 12 47 42 15 39 -6 31 50 49 43 23 40 38 57 -26 27 28 -13 -10 -31 58 -32 59 -35 -8 -24 -38 -11 -12 -23 -15 52 -18 -45 -46 55 -5 56 -3 -2 -48 -4 -41 -43 61 -29 -25 -14 -20 -49 -19
right_child=18 2 3 4 16 6 35 10 29 21 14 26 17 41 -16 -17 20 46 33 -21 -22 22 36 24 25 -27 -28 48 -30 30 32 -33 -34 34 -36 -37 37 -39 -40 53 -42 54 -44 44 45 -47 51 60 -50 -51 -52 -53 -54 -55 -56 -57 -58 -59 -60 -61 -62 -63
leaf_value=0.080229006327980842 0.077634920787352721 -0.0071814632951120788 0.028035337712821864 0.049464822439431518 0.070220985239991804 0.052178475396551127 -0.04757379143750471 0.081934855011260813 0.00093697477831109334 -0.062918068192147389 0.021439186885820891 0.00015022245801755676 0.098087529320460484 0.078302419410098856 0.078054840793588987 -0.052314815597140643 0.098748360040284699 0.10276360770991913 0.064224739585419743 -0.0067718867793832476 0.062643352057006871 0.030096813905227223 -0.024396648452748259 -0.0063407606086188523 -0.037630891995662635 0.039680264546546495 0.097308592971199717 -0.0087879911834362768 0.083599807610082413 0.083708186407180668 -0.00034019132092954026 0.083474024330995794 0.053310116312247448 -0.0073561695774708065 0.071294791958213366 0.080607938141035729 -0.039871543340883553 0.032636964409174796 -0.022168340185780285 0.080572463157103397 -0.02159036988105812 0.043211889137633915 0.015638567403576262 -0.0093495148596938922 0.073593356429939277 0.017535533889337551 -0.024511319924159398 0.0019307714271305559 0.095596605360263376 0.020784861391713566 -0.007764585609860832 0.07702276129731539 0.055579053748323032 0.026218020093344702 0.088998504985501825 -0.0060748824921472225 0.039371313971196607 0.042963433321077868 0.0038787015124576055 0.087892269519684374 0.028555760959589921 -0.021962528591599591
leaf_weight=584.27861021459103 44.499185562133789 430.83665266633034 1009.862769946456 168.9215115904808 621.89908373355865 306.05597154796124 23.288508847355843 1720.3421569615602 1509.1718693971634 215.25282266736031 401.37049981951714 167.64645001292229 22.748327419161797 561.94321417808533 450.87461394071579 200.63110917806625 43.419131889939308 12.48726926743984 434.211805164814 11456.983794674277 354.72454944252968 526.18980540335178 7711.6846938878298 213.85804763436317 7573.0902476459742 88.894930616021156 82.318592473864555 649.77231161296368 220.88900934159756 195.33789187669754 474.48088067770004 65.523457854986191 179.52523428201675 95.141908705234528 194.6554384380579 288.89714579284191 304.97799773514271 364.04782252013683 7755.4303824007511 239.14884614944458 159.96557892858982 899.91508592665195 1369.9161980003119 445.18313309550285 141.19161120057106 941.88496035337448 5039.5804372876883 1314.4147170484066 27.154389590024948 1255.7616266012192 124.41452014446259 23.244351014494896 450.80801212787628 98.272723272442818 109.54346364736557 2165.4322536289692 100.65553149580956 133.29910019040108 1212.8799947947264 1893.2651271671057 349.30530376732349 1588.1022567898035
leaf_count=2383 183 2022 4336 740 2617 1316 112 7014 6775 1193 1757 763 91 2292 1835 1069 186 50 1771 54414 1450 2403 39705 1014 39760 414 330 3153 914 787 2149 268 748 406 788 1185 1564 1659 38712 987 767 3823 5974 2067 587 4229 25227 6002 109 5771 581 97 1890 421 443 10502 411 604 5650 7673 1605 7778
internal_value=-0.000330568 -0.00357368 -0.00852175 0.00756346 -0.000947933 -0.0168782 -0.0233953 0.0446282 0.0251634 -0.0245582 0.0630428 -0.00816458 -0.011303 0.0380348 0.0396659 0.0212411 0.0364651 -0.0154078 0.0753564 -0.00415249 0.0255677 -0.0254959 -0.0194152 -0.028946 -0.0345959 -0.0367339 0.0219077 0.016585 0.0475927 0.0115219 0.0303299 0.00953404 0.0143869 0.0792689 0.0454733 0.0710458 -0.0224823 -0.000416318 -0.0232688 0.0412164 0.0180468 0.0589523 0.0264224 0.0171998 0.0148829 0.0248433 -0.0190837 0.0113869 0.00109135 0.0136409 0.0147333 -0.0240452 0.0365362 0.0647419 0.0481805 -0.0124137 -0.00232834 0.0125907 0.00561312 0.0834769 0.0075208 -0.0209895
internal_weight=67809.5 65023.3 58969.9 20161.4 15759.4 38808.5 25664.9 6053.43 2942.79 25352.7 3110.64 13211.1 11962.6 4401.99 1390.3 939.423 2548.3 10130 2786.19 13143.6 1926.4 25046.7 9066.87 15979.8 8009.14 7661.99 1248.44 1166.12 388.535 2358.52 849.344 1301.15 654.006 2617.27 289.797 312.186 8380.71 669.026 7970.68 738.792 686.155 1571.4 2830.59 1571.68 1528.26 1083.08 8828.85 1832.64 777.582 1686.6 168.914 5062.82 1460.67 337.422 1009.46 3766.02 750.428 347.157 1235.63 2327.48 1663.72 1600.59
internal_count=323526 312124 286199 93584 74826 192615 130408 25925 12842 129111 13083 63690 58010 18758 6069 4234 11136 49663 11402 62207 8519 127795 46098 81697 41792 40174 5680 5350 1677 10459 3684 6009 2897 10638 1194 1297 42928 3223 39905 3165 3170 6558 12200 7069 6883 4816 43654 8347 3673 7793 764 25324 6226 1408 4266 18330 3564 1618 5741 9444 7607 7828
is_linear=0
shrinkage=0.05


Tree=10
num_leaves=63
num_cat=0
split_feature=2 4 8 4 2 1 4 2 0 5 1 1 4 2 4 4 1 1 4 2 8 1 1 1 2 1 2 4 2 2 2 3 4 4 8 2 4 1 4 1 2 6 0 1 1 4 1 1 4 4 1 4 8 2 3 3 4 4 4 4 1 2
split_gain=7465.01 7769.21 5276.19 5970.66 2799.07 2224.64 2547.84 3188.45 845.249 727.003 712.162 675.031 492.313 480.881 775.142 496.038 994.138 451.928 925.856 923.527 398.733 327.971 287.568 269.408 247.596 222.979 283.556 224.259 223.349 198.914 198.363 190.02 258.245 176.515 155.792 155.394 155.305 141.702 141.115 138.625 133.851 129.626 128.032 127.481 127.046 124.591 122.974 118.314 118.231 117.752 124.03 115.826 131.126 113.18 110.697 105.581 97.6618 97.2878 96.4203 95.5015 94.9731 94.2512
threshold=0.94314097695449495 -0.88654321444033923 1.0000000180025095e-35 -0.71131110346687232 -0.10319205711363004 1.6067626537267417 -0.36084688151993827 -0.36477531563066123 -0.67723267852813895 1.0000000180025095e-35 1.8012831539571583 -1.8198349458239993 -0.53607899249340518 -0.36477531563066123 -0.53607899249340518 -0.71131110346687232 -0.706367341380439 2.5578506580330385 0.34008156237392984 2.425446108551006 3.4544887073447978 -0.706367341380439 0.59454064238279225 -1.2172359512796171 -0.27758089612498416 1.034542418234033 0.071196781897724118 1.0000000180025095e-35 -0.36477531563066123 -0.27758089612498416 1.2047242354715264 0.64079133294867463 1.0000000180025095e-35 1.0000000180025095e-35 1.8201465492090692 0.50716887942610955 -0.18561477054647127 0.34170962159551826 -0.18561477054647127 -1.2172359512796171 -0.36477531563066123 1.0000000180025095e-35 -0.17123603794489475 -0.24639092070763621 -0.40959545902143885 0.34008156237392984 1.8012831539571583 1.8937891725332816 0.86577789529433102 0.16484945140046278 -0.11094401265231198 -0.53607899249340518 1.8201465492090692 0.15839120140340121 0.9389292508614554 -0.59435146983284548 -0.18561477054647127 -0.71131110346687232 -1.0617753254138063 0.51531367334739697 0.4879613037412478 0.50716887942610955
decision_type=2 2 2 2 2 2 2 2 2 2 2 2 2 2 2 2 2 2 2 2 2 2 2 2 2 2 2 2 2 2 2 2 2 2 2 2 2 2 2 2 2 2 2 2 2 2 2 2 2 2 2 2 2 2 2 2 2 2 2 2 2 2
left_child=1 23 4 -4 8 6 7 51 11 20 12 -3 22 15 37 -10 39 18 -2 30 21 -8 55 40 46 26 28 35 49 -30 54 32 -12 -27 48 -28 42 -15 44 -17 58 61 -31 -40 -18 -26 -16 59 -32 -23 -51 52 -5 60 -20 -6 -41 -57 -1 -7 -9 -14
right_child=17 2 3 5 10 47 9 53 13 -11 31 -13 41 14 24 16 38 -19 19 -21 -22 25 -24 -25 45 33 27 -29 29 36 34 -33 -34 -35 -36 -37 -38 -39 43 56 -42 -43 -44 -45 -46 -47 -48 -49 -50 50 -52 -53 -54 -55 -56 57 -58 -59 -60 -61 -62 -63
leaf_value=0.094371282468201742 0.073604570472821804 -0.034877682916393662 0.08635958092464481 -0.015365739277914764 -0.040274460801023607 0.070885515210177955 0.014409567139935334 0.056070072995208532 -0.029956788566110216 0.087203904021074724 0.085309149957608979 0.083948343640281711 -0.047907322995372592 0.030893791909208396 0.0039992737582928584 0.027100691651411036 -0.015722882765726656 0.08182739671479182 -0.02831171987855402 0.07713064475929686 0.050354629064086755 -0.030011440551425211 0.083089520071266215 0.083573536035981111 -0.023883977171148117 0.072661871643544595 -0.01617884806276219 -0.043905311491791277 0.021099586439358248 -0.0048832192095027149 0.03788542851269483 0.060391589318961797 -0.042699331767534043 -0.0042726140540815293 0.084168771138699389 0.07176785745989693 -0.019049796287201118 0.094223926536376554 -0.0013750271653201966 0.0017927984751648616 0.077399211815658023 0.16051625674210657 0.064237861287837761 -0.018332945102768988 -0.030258640772705372 0.001999061066204599 0.091153666253028745 0.081057932327221471 -0.0013198725672884961 0.0097082837501596322 -0.023181994756132984 0.0042203052829136141 0.095925252982358974 0.085190822557229415 0.028561711010904101 0.034570314463340288 0.030985118979751189 -0.015241453180652864 0.035242915802462617 0.0029070601561323188 0.087746422661986873 -0.034770351488254733
leaf_weight=76.538413226604462 1898.7739832401276 169.48202612996101 2343.1580620706081 1953.4815413653851 281.9521126896143 109.65754574537277 689.69717952609062 1356.1482339352369 4833.9225100129843 167.53652428090572 53.642920464277267 405.43731911480427 8843.3760582953691 1120.0055367052555 1591.6748384535313 921.63699494302273 2583.4412345737219 1330.9316559880972 482.09704692661762 617.02565304934978 211.17997722327709 3213.0605105161667 81.149634152650833 1947.0927470773458 2171.2227513790131 82.248871058225632 353.08645190298557 2181.236909493804 523.18115197122097 181.91943550109863 297.02018909156322 195.99276335537434 148.38972139358521 797.05019052326679 83.333623975515366 58.556430459022522 1752.424669533968 95.889533549547195 1623.1078160852194 2671.6524563878775 378.76140552759171 7.6128684729337683 106.04727359116077 3493.9075539559126 3595.1129571348429 591.62958742678165 41.529972597956657 834.42455473542213 545.43525531888008 432.48211376368999 849.9775545746088 1603.3630542606115 26.830859407782555 736.03515373170376 104.01748590171337 133.28518924117088 320.91638812422752 370.53119392693043 695.16112248599529 97.697538539767265 286.64625836908817 1614.6033874899149
leaf_count=308 7710 789 9481 8974 1409 454 3096 5449 24066 687 220 1645 49788 4684 7404 4074 12566 5462 2250 2507 855 16302 342 7897 10745 334 1693 11790 2326 810 1239 811 765 3718 336 247 8507 387 7902 12400 1545 38 482 17607 18380 2879 167 3401 2323 2121 4278 7251 110 2994 439 588 1458 1747 2833 434 1168 8654
internal_value=-5.09088e-05 -0.00494397 -0.00900246 0.0111417 -0.0201181 0.00166808 -0.00254302 0.0240199 -0.0110386 -0.016197 -0.0404207 0.0489193 -0.0427296 -0.0123822 0.00055466 -0.0160043 -0.01157 0.0565677 0.0482208 0.0255811 -0.0177123 -0.0189933 -0.00652023 0.0722389 -0.00921816 -0.0211809 -0.0233768 -0.0375173 -0.0181829 -0.00640533 0.00454317 0.025316 -0.00871102 0.00292377 0.0189535 -0.00366838 -0.0134579 0.0358882 -0.0190949 0.0101452 0.0530556 -0.045729 0.0205715 -0.0129539 -0.0241808 -0.0183415 0.00621548 0.0726582 0.0125025 -0.024899 -0.0120905 -0.00576957 -0.0138579 0.0688973 -0.0182184 -0.0157746 0.00492332 -0.00206369 0.0411074 0.0388567 0.0615972 -0.0458791
internal_weight=67364.4 62005.8 58908.2 20947.1 37961.1 18604 17562.2 5962.51 26230.6 11599.7 11730.5 574.919 11332.5 25655.7 5611.95 20043.7 15209.8 5358.63 4027.7 2128.93 11432.1 11221 866.918 3097.55 4396.06 10531.3 9651.97 2592.88 7059.09 2563.57 1511.9 398.025 202.033 879.299 925.789 411.643 2040.39 1215.9 11295.6 3914.21 1150.46 10465.6 287.967 5117.02 6178.55 2762.85 1633.2 1041.78 842.455 4495.52 1282.46 3583.68 1980.31 2378.83 586.115 785.768 2992.57 503.816 771.7 207.355 1642.79 10458
internal_count=323326 301060 288477 96962 191515 87481 83192 25946 127153 57246 64362 2434 62566 124719 26266 98453 74387 22266 16804 9094 56559 55704 4086 12583 21195 52608 48556 13730 34826 12125 6587 1796 985 4052 3898 1940 9799 5071 56455 17932 4686 58480 1292 25509 30946 13624 7571 4289 3562 22701 6399 16335 9084 9611 2689 3744 13858 2335 3141 888 6617 58442
is_linear=0
shrinkage=0.05


Tree=11
num_leaves=63
num_cat=0
split_feature=4 8 4 1 4 1 1 1 3 3 3 3 4 1 4 1 1 1 8 4 4 3 1 5 1 3 3 4 1 3 3 1 1 7 1 4 1 4 3 3 3 4 3 4 4 1 4 4 1 4 1 3 3 1 3 4 8 4 4 3 4 4
split_gain=6207.03 6532.74 4511.46 4543.22 2406.58 1356.63 1098.37 1000.96 763.359 713.65 666.937 655.792 671.013 589.485 588.93 728 536.805 499.918 467.021 448.674 388.681 280.532 255.659 229.488 232.875 164.029 171.22 194.791 163.031 219.172 148.704 344.855 137.462 134.111 131.559 148.716 442.206 130.977 120.901 119.348 117.624 113.124 112.08 107.078 103.148 102.315 101.248 99.5893 170.743 156.2 116.676 99.4945 95.294 140.104 94.0696 91.9141 89.517 110.385 87.6502 86.6223 85.8163 83.5735
threshold=-0.88654321444033923 1.0000000180025095e-35 -0.71131110346687232 1.1272760791567007 -0.36084688151993827 1.660759572343095 -0.40959545902143885 -0.043752943712478405 -0.42398694531125658 -0.65823816652844125 0.74726916077466787 -0.65823816652844125 -0.71131110346687232 2.0200930473634462 -0.53607899249340518 0.5224365850893059 -0.91792749187017464 -1.8198349458239993 3.4544887073447978 1.0000000180025095e-35 -0.18561477054647127 -0.10455346183327725 -1.1710878048139304 1.0000000180025095e-35 -0.76385934244473774 -0.019371199572482772 0.78986029190506502 1.041010006267798 -0.63744476153917928 -0.40269137974605795 1.1944760376438388 0.81508805788019212 0.51159708270643933 1.0000000180025095e-35 -0.19822459657745281 -0.18561477054647127 0.69609381205520215 2.4428668940555345 0.53431350512268161 0.25747115277509935 2.6851656272077431 -1.0617753254138063 -0.16844015852887312 0.51531367334739697 0.34008156237392984 -1.2926533685596835 1.0000000180025095e-35 0.69054578432086389 0.79803697719615319 -0.18561477054647127 0.13737047494616075 1.9611163979909896 -0.59435146983284548 0.1680264111954857 0.12969775938390762 1.2162421172412652 1.8201465492090692 -0.53607899249340518 1.0000000180025095e-35 0.70467802964427062 1.7419384501616662 0.34008156237392984
decision_type=2 2 2 2 2 2 2 2 2 2 2 2 2 2 2 2 2 2 2 2 2 2 2 2 2 2 2 2 2 2 2 2 2 2 2 2 2 2 2 2 2 2 2 2 2 2 2 2 2 2 2 2 2 2 2 2 2 2 2 2 2 2
left_child=22 5 -3 4 7 6 11 9 -6 -4 19 17 -13 20 15 52 45 -2 23 -7 -5 44 41 24 -10 -22 27 39 42 -30 34 55 56 -12 -23 36 -36 -37 -21 -27 47 -1 -11 -41 -16 -14 -18 48 54 -50 -49 -35 -8 -54 -26 -32 57 -9 -56 -52 -33 -51
right_child=1 2 3 13 8 10 14 32 18 28 33 12 16 -15 21 -17 46 -19 -20 38 25 30 -24 -25 40 26 -28 -29 29 -31 31 60 -34 51 35 37 -38 -39 -40 43 -42 -43 -44 -45 -46 -47 -48 50 49 61 59 -53 53 -55 58 -57 -58 -59 -60 -61 -62 -63
leaf_value=0.086667965777745826 -0.027264266209427675 0.082867409106974918 0.080913686815038355 0.087336142498367408 0.058493350773279273 0.082577800263530649 -0.043795162640809876 0.067798705882102059 0.014960277390189678 -0.0019571162920961763 0.071584302648934936 -0.024011244960432658 0.032889877801838704 0.078517048483081525 -0.036163754972946306 0.077803449392835483 -0.010854903696157287 0.070355991076844579 0.055068824691676149 -0.03931158979721134 0.068121714634794814 -0.010908245973923588 0.080779541175785174 0.089059195215951986 -0.023369767336561938 0.0042284090196574682 0.048959480906742056 -0.025826307563828421 0.05466866126435297 0.011670163226139108 0.062870930759665308 0.071294955557268544 0.083541887549032787 -0.029387350033251561 -0.023189040934598525 -0.028156348234784408 0.048464709429824004 0.029860551224193056 0.014042712973435843 0.077874455864620148 0.08838222737433106 0.044776519989253215 0.037084643383569128 0.019630978663459427 0.00010952982204493774 0.011539687472435644 0.0092509506452752126 0.00063425648010055906 0.08508459548499224 0.016708086813564713 -0.043587598546278333 0.060247776304810902 -0.011989367652166219 0.028934674767225728 0.016103549234873185 -0.046477193220044066 0.087845436540573418 0.022789507668274714 -0.014897990651732949 -0.018007020813836511 0.01740371357439249 -0.022765341305669685
leaf_weight=191.13240221142769 183.16565123200417 2368.5820758789778 372.0617112070322 346.64108988642693 347.98565177619457 118.56333966553211 191.95199033617973 231.88397696614265 490.01503427326679 2466.9344463199377 666.89672158658504 4818.7493049800396 820.32785780727863 1952.4694287031889 6585.8189035654068 264.63299112021923 5721.6936227679253 461.79098196327686 221.91457186639309 392.3667963296175 226.80819599330425 1728.1913226097822 1869.9743124991655 49.628033474087715 5863.8354639410973 339.58830367028713 411.41396291553974 267.03029601275921 370.32464139163494 1483.8045856207609 20.735528632998466 117.83415965735912 544.16462717950344 62.618220195174217 1262.779532417655 10947.517580389977 259.58381722867489 98.152984261512756 145.5687447488308 148.33700446784496 24.822635158896446 1027.485335662961 198.62875762581825 168.60875390470028 201.99796199798584 1776.0521848797798 703.10013344883919 250.37986786663532 58.432701021432877 299.65649808943272 1127.2891269177198 61.232054144144058 1657.6605287343264 239.33310694992542 265.92295770347118 262.52385485172272 126.94092263281345 330.20247679948807 1598.5599694699049 468.46864120662212 197.99506506323814 242.69038355350494
leaf_count=786 856 9674 1556 1411 1451 493 1037 964 2185 10968 2768 23884 3571 8100 35416 1096 27637 1894 896 1977 950 8705 7654 202 29592 1505 1703 1247 1534 6628 96 513 2242 268 6602 58428 1221 478 649 614 104 4187 884 779 1055 8076 3346 1234 247 1456 5977 251 8051 1090 1281 1394 520 1396 8056 2314 948 1229
internal_value=-5.44878e-05 -0.00341433 0.0174063 0.0101254 -0.000742565 -0.0157414 -0.0175269 0.0245002 -0.0144133 0.0143516 0.0317835 -0.00665085 -0.0089475 0.0592015 -0.024081 -0.000325668 -0.000901049 0.0426321 -0.0167278 -0.00546792 0.0394401 -0.0266595 0.0691668 -0.0182113 -0.0187093 0.0288095 0.0221305 0.0101792 0.00887215 0.0202582 -0.0228203 0.00158427 0.0647574 0.0627106 -0.023843 -0.0256216 -0.0109711 -0.0276408 -0.0248736 0.0248236 -0.0203268 0.0513469 0.000952144 0.0468901 -0.0350843 0.0182853 -0.00865461 -0.020592 -0.0182632 0.00741284 -0.0310988 0.0149286 -0.0102233 -0.00682621 -0.0202592 -0.0384725 0.0499222 0.0413577 -0.0104764 -0.0360779 0.0375102 -0.000955556
internal_weight=66721.5 63632.9 23664 21295.4 17434.5 39968.8 38521.6 6124.95 11309.6 4891.75 1447.25 14484.9 13839.9 3860.9 24036.7 2353.58 9021.17 644.957 10961.6 656.499 1908.43 21683.1 3088.59 10739.7 10690.1 1561.79 1334.98 923.564 4519.69 1854.13 14895.3 599.089 1233.19 790.747 14296.2 12568 1522.36 11045.7 537.936 656.534 10200.1 1218.62 2665.56 316.946 6787.82 2596.38 6424.79 10175.2 8329.1 600.78 1846.14 123.85 2088.95 1896.99 7728.32 283.259 689.027 562.086 1864.48 1595.76 315.829 542.347
internal_count=323326 310699 108899 99225 82916 201800 195394 26692 56224 21570 6406 69264 66514 16309 126130 11274 42630 2750 54773 3119 8209 114856 12627 53877 53675 6798 5848 4145 20014 8162 78385 2951 5122 3287 75434 66729 7823 58906 2626 2898 51490 4973 11852 1393 36471 11647 30983 51386 41861 2932 9525 519 10178 9141 38929 1490 2880 2360 9337 8291 1461 2685
is_linear=0
shrinkage=0.05


Tree=12
num_leaves=63
num_cat=0
split_feature=2 4 8 4 2 1 4 2 1 3 5 1 4 2 4 4 1 8 1 1 2 1 2 8 4 2 4 2 4 3 4 2 2 2 1 2 2 4 4 8 3 4 1 4 1 4 3 4 3 4 3 2 1 1 7 3 1 3 4 8 3 3
split_gain=6449.16 6368.7 4665.24 4903.79 2412.01 2400.06 2168.13 2869.1 698.106 669.261 629.492 511.942 486.934 450 690.354 440.712 830.817 348.885 268.804 261.796 266.634 251.183 248.6 232.888 265.164 505.445 230.342 224.571 224.368 223.13 238.494 203.521 187.998 182.414 161.576 159.375 151.526 142.585 134.463 126.669 124.507 159.11 116.621 114.748 157.319 114.086 111.273 178.621 172.95 109.265 143.067 108.528 107.599 106.298 105.138 118.191 104.9 103.74 103.126 117.202 102.509 100.161
threshold=1.1175298159658493 -0.88654321444033923 1.0000000180025095e-35 -0.71131110346687232 -0.10319205711363004 1.8937891725332816 -0.36084688151993827 -0.36477531563066123 1.8012831539571583 -0.65823816652844125 1.0000000180025095e-35 -1.8198349458239993 -0.53607899249340518 -0.36477531563066123 -0.53607899249340518 -0.71131110346687232 -0.706367341380439 3.4544887073447978 -0.81285155332508163 1.034542418234033 0.071196781897724118 0.5224365850893059 -0.36477531563066123 1.0000000180025095e-35 0.34008156237392984 2.2510572695396518 1.0000000180025095e-35 -0.27758089612498416 1.0000000180025095e-35 0.57690463625307886 1.0000000180025095e-35 -0.36477531563066123 -0.27758089612498416 0.50716887942610955 -0.9821885788806074 0.50716887942610955 0.071196781897724118 -0.18561477054647127 -0.18561477054647127 1.8201465492090692 0.70467802964427062 1.7419384501616662 -0.20487841779970514 -0.18561477054647127 -0.33158206962934716 0.34008156237392984 -0.10455346183327725 0.69054578432086389 0.53431350512268161 0.51531367334739697 1.2157716032090375 0.15839120140340121 -1.1922980546427613 0.34170962159551826 1.0000000180025095e-35 0.12969775938390762 -0.24639092070763621 -0.16844015852887312 -0.53607899249340518 1.8201465492090692 -0.061962330702880007 -0.59435146983284548
decision_type=2 2 2 2 2 2 2 2 2 2 2 2 2 2 2 2 2 2 2 2 2 2 2 2 2 2 2 2 2 2 2 2 2 2 2 2 2 2 2 2 2 2 2 2 2 2 2 2 2 2 2 2 2 2 2 2 2 2 2 2 2 2
left_child=1 22 4 -4 9 6 7 58 12 11 17 -3 21 15 53 -11 52 18 -8 20 31 61 34 24 -2 40 35 54 -21 30 -10 43 -33 36 -1 -22 -14 57 42 49 -26 -42 -18 60 -45 -29 -35 48 -48 -30 -51 -9 -17 -15 55 -16 -40 -34 59 -5 -20 -6
right_child=23 2 3 5 8 -7 10 51 29 13 -12 -13 33 14 27 16 38 -19 19 28 26 -23 -24 -25 25 -27 -28 45 39 -31 -32 32 37 46 -36 -37 -38 -39 56 -41 41 -43 -44 44 -46 -47 47 -49 -50 50 -52 -53 -54 -55 -56 -57 -58 -59 -60 -61 -62 -63
leaf_value=0.039102446579015293 0.068040808923440041 -0.029645825577425622 0.079685811227806824 -0.014972490193363315 -0.038324131396885584 0.075811631291783158 0.020933154698555799 0.057139771915069526 0.077701223936656461 -0.028012774564577014 0.082044002755635656 0.071633989157241215 -0.036634691716737319 0.030829816007541658 0.00060214781162138071 0.023394737419174069 -0.017777713756764232 0.04661326586000121 -0.038325787126909316 0.070233390836547602 -0.015370136784079912 0.068139937735688202 0.080061010889743059 0.069783001541451006 -0.01646109827038526 0.068817948236194304 -0.041261170650942647 -0.021982409216876136 0.030915671518553109 0.053575312144753633 -0.045226724285811482 0.021504643564195097 -0.0033407203407786233 -0.0468987242077991 0.073424478934156948 0.064388162332104815 -0.050727423658383952 -0.017273942189679002 -0.00096505067687287563 -0.038925807557994546 0.058885764392544053 -0.012579003246596299 -0.03267592359643684 0.003085363776427057 -0.023276155784254286 0.0029315968374439088 -0.0056693656717928653 -0.036750141139618935 0.1192797991585916 -0.017781443724532411 0.050994105291869873 0.079692791281865363 0.0044168840885017999 0.085575565267776488 -0.064595152325263416 0.031062288189317434 -0.016419350050205204 0.057293631235384661 0.0035150302626442789 0.089566219894486473 -0.0041470224932316805 -0.00066076295894019772
leaf_weight=947.43438562750816 844.40591812133789 176.13333439826965 2308.9364317953587 1947.3344929218292 272.75790178775787 1053.9697707146406 451.78986723721027 1648.7452591359615 52.090961098670959 4719.7218951135874 167.21501652896404 427.87295988202095 2894.1549754440784 1088.1625490039587 1128.3620832115412 1002.8761754482985 4131.9553589969873 220.64080429077148 1391.9483598172665 114.91364651918411 351.03860810399055 105.96042427420616 1570.3694734126329 2297.2214370369911 368.77701883018017 515.82294620573521 2197.7081511616707 2123.1455829292536 276.94355335831642 258.05497418344021 162.67253787815571 536.621238514781 181.42243975400925 575.23377902805805 537.40572336316109 76.236277505755424 5594.2115312516689 1729.417388767004 1617.1133087724447 202.17657946050167 171.21345345675945 142.88238368928432 1925.7630954831839 762.04042619466782 2199.4131468087435 586.41277566552162 526.74780789017677 726.86538130044937 29.231415688991547 493.06100922822952 89.312619358301163 788.54865804314613 2926.0146712958813 96.533529937267303 49.796447083353996 443.68997511267662 3420.7632941454649 115.42047320306301 1610.6342492550611 27.185887530446053 260.41858449578285 500.31882393360138
leaf_count=3829 3416 834 9545 8974 1406 4419 1979 6664 213 24066 705 1772 16567 4538 5276 4373 20776 889 7297 463 1702 441 6559 9582 1660 2141 12211 10742 1218 1068 870 2381 812 3202 2204 317 33255 8535 7902 963 700 604 10170 3766 11266 2879 2798 3879 139 2342 366 3276 13538 387 242 2051 17607 516 7251 110 1353 2320
internal_value=-5.46701e-05 -0.00419098 -0.00785018 0.0109008 -0.0184346 0.00249498 -0.00183646 0.0225806 -0.0372741 -0.00991355 -0.0142797 0.0420999 -0.0397809 -0.0111573 0.00146859 -0.0146846 -0.0104978 -0.0156621 -0.0168643 -0.0184198 -0.0210948 -0.00405406 0.0661922 0.0588604 0.0465793 0.031461 -0.0347304 -0.0077822 0.00386759 0.0222406 -0.0154105 -0.0161073 -0.00480991 -0.0428163 0.0515246 -0.00113931 -0.0459224 -0.0117789 -0.0174943 -0.00331694 0.00324254 0.0263764 -0.0225139 -0.0223828 -0.0164928 -0.0165904 -0.0286262 -0.0204327 0.000900018 0.00506097 -0.00723405 0.0644365 0.00926111 0.0352907 0.00693336 0.0091991 -0.0114587 0.0202355 -0.00587425 -0.0135332 -0.0329391 -0.0139492
internal_weight=66161.2 61820.9 58765.7 21203.1 37562.6 18894.2 17840.2 6022.45 11698.3 25864.3 11817.7 604.006 11225.5 25260.3 5516.1 19744.2 15024.5 11650.5 11429.9 10978.1 9801.69 879.037 3055.21 4340.32 2043.1 1198.7 2624.98 4331.41 1176.41 472.818 214.763 7176.7 2562.88 10346.4 1484.84 427.275 8488.37 2026.26 11095.6 1061.49 682.873 314.096 6057.72 4613.82 2961.45 2709.56 1858.08 1282.84 555.979 859.317 582.374 2437.29 3928.89 1184.7 1621.85 1572.05 5037.88 296.843 3585.15 1974.52 1652.37 773.077
internal_count=323326 305223 292631 99320 193311 89775 85356 26275 66158 127153 59081 2606 64007 124547 26115 98432 74366 58376 57487 55508 50156 4167 12592 18103 8521 5105 14230 21190 5352 2151 1083 35926 12244 59840 6033 2019 49822 9863 56455 4889 2964 1304 30946 23682 15032 13621 10018 6816 2937 3926 2708 9940 17911 4925 7569 7327 25509 1328 16335 9084 8650 3726
is_linear=0
shrinkage=0.05


Tree=13
num_leaves=63
num_cat=0
split_feature=4 8 4 1 4 0 1 1 5 1 1 0 4 1 8 4 8 4 1 1 0 4 1 1 1 1 1 0 4 0 4 1 4 0 1 4 0 4 4 0 4 0 7 4 0 0 0 4 0 1 4 5 0 4 4 4 0 7 0 4 0 4
split_gain=5158.06 5428.21 3800.19 3802.43 1966.87 1249.22 886.39 809.472 633.53 582.85 569.21 510.066 806.927 524.215 418.761 417.965 392.378 332.991 825.96 344.093 437.207 1330.9 322.421 253.938 238.68 185 169.221 166.069 158.532 155.37 301.513 142.179 220.51 172.331 152.932 141.263 237.051 139.528 135.499 134.471 128.042 117.294 116.311 111.976 110.807 104.433 104.429 104.099 213.127 136.167 103.669 195.732 102.256 104.046 101.549 97.4544 146.92 85.7552 84.0003 86.6674 83.1781 270.615
threshold=-0.88654321444033923 1.0000000180025095e-35 -0.71131110346687232 1.0799730144437063 -0.36084688151993827 1.5322859853520281 -0.69572776978021611 0.17837140207278787 1.0000000180025095e-35 2.1706254540910019 2.1706254540910019 -0.67723267852813895 -0.71131110346687232 -1.8198349458239993 1.8201465492090692 1.0000000180025095e-35 5.088830865480527 -0.53607899249340518 0.5224365850893059 -0.19822459657745281 0.13236194640505183 1.0000000180025095e-35 0.86501552409045879 -0.706367341380439 -1.2172359512796171 -1.2718504393730321 -0.41743879728031269 -0.59289990509759827 -0.53607899249340518 0.99255623539656734 1.041010006267798 0.18899773856049426 -0.36084688151993827 -0.036303600456029629 1.0573300077958003 0.16484945140046278 0.35162715732445776 2.4428668940555345 1.7419384501616662 2.4936796024601926 1.0000000180025095e-35 0.99255623539656734 1.0000000180025095e-35 -1.0617753254138063 -0.27243536606154356 -0.17123603794489475 0.1998281651494844 0.69054578432086389 0.55402581355775549 0.13737047494616075 -0.53607899249340518 1.0000000180025095e-35 0.21669471983559255 -0.18561477054647127 0.51531367334739697 0.16484945140046278 0.45282648544110665 1.0000000180025095e-35 0.43595993075499845 0.16484945140046278 0.098628837032835537 1.0000000180025095e-35
decision_type=2 2 2 2 2 2 2 2 2 2 2 2 2 2 2 2 2 2 2 2 2 2 2 2 2 2 2 2 2 2 2 2 2 2 2 2 2 2 2 2 2 2 2 2 2 2 2 2 2 2 2 2 2 2 2 2 2 2 2 2 2 2
left_child=24 5 -3 4 7 6 11 14 16 15 17 13 -13 -2 26 -5 23 18 27 40 31 52 38 -6 43 -14 28 -8 -4 30 46 54 33 34 -33 36 -23 -37 -7 47 -19 -39 58 -1 -30 -29 -17 48 60 -49 -16 -52 53 -22 -21 -48 -57 -24 59 -12 -25 -62
right_child=1 2 3 9 8 22 10 -9 -10 -11 42 12 25 -15 50 29 -18 19 -20 20 21 35 57 39 -26 -27 -28 45 44 -31 -32 32 -34 -35 -36 37 -38 41 -40 -41 -42 -43 -44 -45 -46 -47 55 49 -50 -51 51 -53 -54 -55 -56 56 -58 -59 -60 -61 61 -63
leaf_value=0.081556191068029776 -0.030767633564136306 0.076907401574912729 -0.0056555279912648346 0.075990015206793327 0.012509816572346259 0.09008413670519401 0.085626149144744743 0.067457163919489513 0.07949960903305836 0.074765358210849439 0.07709419131769038 -0.022087190950327407 0.028893303461504163 0.075675536036450636 0.080579398393110485 -0.0014895779941789119 0.086423853455301125 -0.016973989235557159 0.0724881586347184 -0.027886746187982838 0.063835411967105612 -0.016548207172648679 0.069380022869666227 -0.020029020389732036 0.074539670184323337 0.003793463553324404 0.024861175945672363 -0.016789958328034767 0.0085945660471377222 0.049005810918029483 -0.026253484202377071 -0.026750884501697044 -0.042386023789822362 0.061723324042851663 0.094646806101481323 -0.026970916024689113 0.060841333711309509 0.087334060503992186 -0.054168534865310418 0.077599223681139196 -9.4004177904048064e-05 -0.0058571995396093333 -0.031904850641837519 0.038768922368507736 0.041899049068899991 0.022024292749852167 0.070922709111983603 0.0041849332187496599 0.049528815209960227 -0.035423063052740116 0.0046078666535003098 0.078167725773630459 0.070043720730007961 -0.0030179004170075192 0.036967676144174982 0.0046638232548762209 0.058326805767920854 0.021160621320564107 0.065860306635719443 -0.047323515355032764 0.046470947103536824 -0.014481169858683841
leaf_weight=181.88621178269386 164.26490627229214 2305.1284915655851 1951.3900921940804 507.24048063158989 724.36754067242146 19.650144770741463 41.420350641012192 839.09172640740871 179.63037358224392 1766.5493518412113 22.543739825487137 3906.6909433305264 907.15711982548237 390.97753982245922 227.6438320428133 205.4370324164629 94.194342061877251 5019.9110690206289 296.68294644355774 4468.3490749895573 107.89387565851212 478.60981501638889 556.26432190835476 6093.653368845582 1889.8861887454987 3848.8221994787455 1287.9636351913214 3783.6339468955994 1055.5895650982857 460.46323604881763 326.12218117713928 479.72002944350243 4942.6497809439898 73.52524322271347 27.425993666052818 6604.5113961994648 124.73988515138626 45.348298132419586 94.89008429646492 36.533312201499939 1447.3430023044348 132.18541730940342 45.861959114670753 959.84951391816139 327.15174245834351 181.61757117509842 178.6329201310873 254.21077516674995 121.69423894584179 1482.1806771606207 201.63880483806133 163.96911557018757 367.58958181738853 126.35903972387314 61.184762999415398 292.0512069016695 226.43996532261372 110.52618865668774 254.16565392911434 36.919066831469536 202.91660892963409 1775.2413344681263
leaf_count=771 792 9674 8820 2112 3213 86 178 3524 772 7583 93 19806 3899 1647 969 925 382 25802 1224 24136 484 2568 2387 31152 7941 17815 5582 18662 4632 1901 1542 2630 28490 328 140 36162 549 215 505 152 7159 686 210 3915 1421 859 747 1256 569 7986 874 712 1607 649 318 1332 975 469 1043 202 912 9180
internal_value=-5.65823e-05 -0.00314816 0.0159691 0.00927425 -0.000996874 -0.0145138 -0.0157877 0.0218775 -0.0136277 0.0533842 -0.0200587 -0.00227202 -0.00524973 0.044185 0.0145443 0.0361874 -0.0151787 -0.0208389 -0.00801105 -0.0230914 -0.0266387 -0.0179062 0.0480751 -0.0160739 0.0636352 0.00858102 0.0094684 -0.0139718 0.00352222 0.0242349 0.0149517 -0.0335769 -0.0389617 -0.00981438 -0.0201858 -0.0237326 -0.000548261 -0.0257951 -0.029421 -0.0181514 -0.0131963 0.0179471 0.0424686 0.0455852 0.0164743 -0.0150122 0.0298403 -0.0185037 -0.016147 -0.0296244 0.0540911 0.0375982 0.0535912 0.0277739 -0.0270107 0.039073 0.0281 0.0613872 0.0533443 -0.000153855 -0.0171371 -0.00822879
internal_weight=65488.2 62456.6 23287.1 20982 17019.1 39169.4 38388.1 6054.44 10964.6 3962.94 29170.2 9217.91 8662.67 555.242 5215.35 2196.39 10785 28810.7 4303.35 24507.3 18040.1 7987.24 781.331 10690.8 3031.62 4755.98 4622.1 4006.67 3334.13 1689.15 1228.68 10052.9 5523.32 580.671 507.146 7385.39 603.35 6782.05 114.54 9966.43 6467.25 177.534 359.49 1141.74 1382.74 3965.25 902.561 9929.9 8193.51 1736.39 593.252 365.608 601.842 234.253 4529.53 697.124 518.491 666.791 313.628 59.4628 8071.81 1978.16
internal_count=323326 310699 108899 99225 82108 201800 198353 26534 55574 17117 154394 43959 41520 2439 23010 9534 54802 152846 20923 131923 98962 42920 3447 54420 12627 21714 20455 19699 14873 7422 5521 56042 31588 3098 2770 40180 3117 37063 591 51207 32961 901 1548 4686 6053 19521 3979 51055 41813 9242 2555 1586 2740 1133 24454 3054 2307 2856 1338 295 41244 10092
is_linear=0
shrinkage=0.05


Tree=14
num_leaves=63
num_cat=0
split_feature=2 4 8 4 2 1 4 2 0 1 3 1 8 1 2 2 1 4 2 1 3 8 4 2 4 1 2 4 4 0 4 2 4 2 2 7 1 1 2 4 0 4 1 4 3 4 1 2 3 3 3 4 1 2 4 0 4 6 2 4 4 3
split_gain=5507.92 5316.97 3881.85 4151.5 2228.3 2041.17 1796.42 2509.58 614.545 590.603 505.821 484.139 305.316 261.572 259.486 249.179 240.899 604.712 521.948 319.905 210.33 198.713 225.309 433.536 198.524 197.429 299.699 183.862 170.612 206.865 199.515 521.985 160.226 151.903 183.258 171.385 161.921 150.888 149.137 143.494 134.739 186.489 127.765 126.925 117.924 115.447 126.554 113.6 110.321 104.808 103.7 144.817 100.763 99.2849 94.1365 181.466 100.205 88.7519 88.5073 88.4792 88.1014 93.7472
